{"id":"lywi8lwnfl6qjzim0pj","r":20,"highlight":false,"position":{"isPInst":true,"x":51.855773043557186,"y":20,"z":0},"velocity":{"isPInst":true,"x":0.34496390673154287,"y":-0.35544865411696147,"z":0},"score":0,"prey_score":0,"fitness":0,"brain":{"input_nodes":6,"hidden_nodes":10,"output_nodes":4,"weights_ih":{"rows":10,"cols":6,"data":[[-0.6840911310825697,-0.3648597336045536,0.04826640994858744,-0.35899340601014496,-0.04883702320953409,-0.39755239460599023],[-0.7177178705915432,-0.4561807693418114,0.4042415190636328,0.19870243900592888,-0.11105958083540912,0.2486268202362223],[-0.7327716833126074,-0.4291081531367187,-0.117516253305471,0.7508439663669506,0.5820642359895127,0.45293058770413586],[-0.07984947529641273,-0.726038710041153,0.9164685342427097,0.19652827034683273,0.8984936768279246,-0.36539286830164075],[-0.47225621183196864,0.3082935118653376,0.1682087047833547,0.6159987413881134,0.8984147697983049,0.05842607781536824],[0.5717226831904969,0.35701294669704664,0.3551868222450909,0.8791684958152501,-0.43869039961094725,-0.3869323794176922],[-0.9809319862948902,0.9247192687661334,0.3640213857501631,-0.5426913776453648,-0.24287582470996094,0.012497153110582637],[-0.4071837267187055,0.538198484672475,0.7453857217128124,-0.4787496689708921,-0.5032692828534429,0.980319142660568],[0.2612803910088499,-0.9397522548801001,-0.9489246305952248,-0.5659417596738052,0.3013617019952126,-0.37683060872782415],[0.9341745663131471,-0.7985344812085371,0.8076005066016627,0.14423928864191238,0.025958767610938516,-0.42613808036291534]]},"weights_ho":{"rows":4,"cols":10,"data":[[0.9181633588189886,-0.973198235397633,-0.20131979805953915,0.01375529597707903,-0.05906972332184024,-0.6628880923786431,0.5500077206545777,0.021810635495437936,0.21142718171265384,-0.06842888993902196],[-0.47633059400555755,-0.884102766462036,0.8407019733498449,0.13206159107609894,-0.9899734312646902,0.8648825875565107,-0.8905127327919042,-0.7473755470624202,-0.5984317984518364,-0.23440731800814119],[-0.7084063367992801,-0.7638694396386416,-0.0711371176309763,0.024733286319098102,-0.049851763700636376,0.006917590591249745,-0.5781558039512773,0.0928466906713874,-0.8943386789376908,-0.9351559745531803],[-0.12019885578842437,-0.07046912780970738,0.8711335453217832,-0.8079270106462917,-0.23535070665490654,-0.8532496118100212,0.3711941216799075,-0.7201651049763145,0.46009545653496575,0.41984443043821384]]},"bias_h":{"rows":10,"cols":1,"data":[[0.19420423313099766],[0.666588776002869],[0.396496295263856],[-0.6533502826438924],[-0.7012408444331109],[-0.22087158835793685],[0.5146683495523012],[-0.44082858619957177],[-0.19779041329178204],[0.21356766895814827]]},"bias_o":{"rows":4,"cols":1,"data":[[-0.670559682113808],[0.8239456043025206],[0.44322406864336683],[0.47810791152766274]]},"learning_rate":0.1,"activation_function":{}},"history":{"rock":[],"paper":[],"scissor":[]},"choice":"rock","choice_code":0,"choice_history":["rock"],"choice_code_history":[0]}
