{"GEN":3}
[{"id":"lywl1mxk8tqt4y0zbdi","r":20,"highlight":false,"position":{"isPInst":true,"x":149.88641173283287,"y":59.88956484414726,"z":0},"velocity":{"isPInst":true,"x":-0.38722337894020753,"y":0.29344474198731274,"z":0},"score":0,"prey_score":0,"fitness":0,"brain":{"input_nodes":6,"hidden_nodes":10,"output_nodes":4,"weights_ih":{"rows":10,"cols":6,"data":[[-0.7654536583674352,0.7886334524765239,0.5740409489289888,0.8785163211087283,-0.14677802822766672,-0.3946539438755965],[1.3470805920601836,0.1666120381947317,-0.5728412432021162,-0.5775321935762161,-0.6786713212531548,0.5786819058705635],[0.7865526747145899,-0.17709510781025584,-0.2643764430481532,-0.8359763291565123,0.707620263935784,-0.7154858572417035],[0.26456820567047457,0.9438430047309989,0.9584178065407225,0.37120859127557404,-0.5520812454783415,0.01636292488093405],[-0.3356802628642206,-0.961897891070524,-0.8051559244326527,0.39811891570797,-0.14403652098603414,-0.7899932775953684],[0.9573763739127035,1.193644749491677,0.24116858037587452,0.5747832369203535,0.4393284172257701,0.8578924383737188],[-0.5832238514083716,0.33905120066135463,-0.2276210813873134,-0.020076106458734255,0.2776510084275423,1.1380999075778964],[0.6700376376093597,-0.12906043991421656,-0.49869275598142115,-1.2147854714920074,0.34619571107126046,-0.19363008427493344],[0.7253702335727379,0.7697880363471922,0.26528324101684975,0.1367382308397087,0.06380784679056983,0.9428672423505797],[-0.9305588077757219,-0.020576198794541332,0.7101899788831991,-0.8364682874034095,0.10551840396098155,-0.5292046915985482]]},"weights_ho":{"rows":4,"cols":10,"data":[[0.6622994886885167,0.7976272908194366,-0.8959225728032443,0.7609136105577115,0.295709598976217,0.42930567500965733,0.20807861658320537,-0.1837412676175001,-0.03751945788654931,-0.4157778847172211],[0.32197848772318594,-0.7194803722183329,-0.6398820913637349,-0.7704496132345532,0.17977455191482639,-0.8499869160774307,0.6839254725237991,0.36622867149494764,0.36029645004702004,0.6943899442152833],[1.086599736446128,0.9804226122398473,-0.7974788072717258,0.129913370066431,-0.7714448980542401,-0.338658130470034,0.9927745546098433,-0.2377086240773063,-0.028163116840719954,0.5530839366140841],[-0.024825997953434875,-0.6834827488272306,-0.9216252878790128,-0.13869920353544757,0.02233095568147131,-0.2779104363883391,0.5567134887806651,0.586077049534004,-0.21056928365249883,-0.01467208555577626]]},"bias_h":{"rows":10,"cols":1,"data":[[0.34419839746836844],[-0.6534130589095062],[-0.2755747168123004],[0.0692267345487183],[-0.9526424832502873],[-0.16247411691795915],[0.6994437514344636],[-0.40179063013461613],[-0.6704419262387171],[0.26262397238111035]]},"bias_o":{"rows":4,"cols":1,"data":[[-0.6203723595072796],[0.29143910508585824],[-0.7879224875966493],[0.4567697086587583]]},"learning_rate":0.1,"activation_function":{}},"history":{"rock":[],"paper":[],"scissor":[]},"choice":"rock","choice_code":0,"choice_history":["rock"],"choice_code_history":[0]},{"id":"lywl1mxkb3153j34wo","r":20,"highlight":false,"position":{"isPInst":true,"x":171.63156528759592,"y":55.686886553114356,"z":0},"velocity":{"isPInst":true,"x":-0.382990748274346,"y":0.003766158509474149,"z":0},"score":0,"prey_score":0,"fitness":0,"brain":{"input_nodes":6,"hidden_nodes":10,"output_nodes":4,"weights_ih":{"rows":10,"cols":6,"data":[[-0.5167888516344985,0.7886334524765239,0.5740409489289888,0.8520308501972467,-0.14677802822766672,-0.34754244706752796],[1.3470805920601836,0.1666120381947317,-0.5728412432021162,-0.5775321935762161,-0.6786713212531548,0.5786819058705635],[0.7865526747145899,-0.17709510781025584,-0.3515699552480252,-0.8359763291565123,0.707620263935784,-0.7154858572417035],[0.26456820567047457,0.9438430047309989,0.9584178065407225,0.37120859127557404,-0.5520812454783415,0.01636292488093405],[-0.3356802628642206,-0.961897891070524,-0.8051559244326527,0.39811891570797,-0.2597136584318957,-0.7899932775953684],[0.45482790374181636,1.193644749491677,0.24116858037587452,0.5747832369203535,0.4393284172257701,0.49569340102487525],[-0.5832238514083716,0.9864284286368618,-0.2276210813873134,-0.020076106458734255,0.17582078515885835,0.9799259039952664],[0.6700376376093597,-0.12906043991421656,-0.49869275598142115,-1.2147854714920074,0.34619571107126046,-0.19363008427493344],[0.7253702335727379,0.7697880363471922,0.26528324101684975,0.1367382308397087,0.06380784679056983,0.9428672423505797],[-0.9305588077757219,0.31480214190233974,0.7101899788831991,-0.8364682874034095,0.10551840396098155,-0.5292046915985482]]},"weights_ho":{"rows":4,"cols":10,"data":[[0.6622994886885167,0.7976272908194366,-0.6579067539506558,0.7609136105577115,0.295709598976217,0.42930567500965733,0.20807861658320537,0.39396218123221693,-0.03751945788654931,-0.4157778847172211],[0.32197848772318594,-0.7194803722183329,-0.6398820913637349,-0.3992927793183795,0.17977455191482639,-0.5138546485827296,0.6839254725237991,0.36622867149494764,0.36029645004702004,0.6437534863076535],[-0.1365076179429061,0.9804226122398473,-0.7974788072717258,0.129913370066431,-0.7714448980542401,-0.338658130470034,0.9927745546098433,-0.2377086240773063,-0.4176418118283566,0.5530839366140841],[-0.024825997953434875,-0.6834827488272306,-0.9216252878790128,0.15202371961685968,0.02233095568147131,-0.2779104363883391,0.9989128415886859,0.586077049534004,-0.21056928365249883,-0.01467208555577626]]},"bias_h":{"rows":10,"cols":1,"data":[[0.10103997198326897],[-0.6534130589095062],[-0.2755747168123004],[0.0692267345487183],[-0.9526424832502873],[-0.16247411691795915],[0.6994437514344636],[-0.40179063013461613],[-0.6704419262387171],[0.26262397238111035]]},"bias_o":{"rows":4,"cols":1,"data":[[-0.6203723595072796],[0.29143910508585824],[-0.7879224875966493],[0.4567697086587583]]},"learning_rate":0.1,"activation_function":{}},"history":{"rock":[],"paper":[],"scissor":[]},"choice":"rock","choice_code":0,"choice_history":["rock"],"choice_code_history":[0]},{"id":"lywl1mxls5ohe2ko7x","r":20,"highlight":false,"position":{"isPInst":true,"x":78.1516479780449,"y":47.48478601887246,"z":0},"velocity":{"isPInst":true,"x":-0.4396502907280442,"y":-0.4291447599329479,"z":0},"score":0,"prey_score":0,"fitness":0,"brain":{"input_nodes":6,"hidden_nodes":10,"output_nodes":4,"weights_ih":{"rows":10,"cols":6,"data":[[-0.5577447220864045,-0.5280588105365194,0.3808399925914694,1.0657718476368645,-0.8758429507517445,0.763820223371932],[1.1515140394165717,-0.1878587113985306,-0.1395125431536206,-1.0406624270969034,-0.13740155155489653,-0.15287588515909034],[-1.1845448083910024,0.049271386949287344,-0.3840933155026067,0.3838773907409814,-0.5547931783082406,0.6686036601425065],[0.46299641003227665,-0.40335673304553366,-0.20164142726316525,-1.1221588957830024,-0.7101554269398918,0.5994558129736491],[-0.8689084114567969,1.2981128547762253,-0.5438831419906394,-0.8734629713919797,0.40593285418654557,-0.5900303256592103],[0.8668860338407267,-1.1843991403426883,-0.36313111212297544,0.2890450836577956,-0.07087323906783483,0.7017273661303594],[0.6051667982965576,-0.8512798032038389,-0.3085243198449885,-0.571174474240228,-0.9893659753003532,0.34778443079832266],[-0.9071496369048706,-0.6216274285383383,0.3314384388523952,0.9588061279808624,-0.2818443670618418,0.05030301879256349],[0.9928098046542706,0.5517143606944042,0.33176578953007985,0.9453879798950475,0.9668358943467132,0.3854359477585659],[0.46233746947340437,-0.17813528402949075,0.7520149223179873,-0.6070202037309476,0.8801304317885928,-0.3274987862678991]]},"weights_ho":{"rows":4,"cols":10,"data":[[-0.18019488687517038,-0.41959425093478003,0.7143985430286688,0.38008724425942697,0.5611058883578033,-0.3650049807497955,-0.9688149491257523,0.09496049289311925,-0.921802081626296,-0.8120678180773919],[0.8717131592276273,0.13016600611595108,0.1378535119766168,-0.6961688440325768,0.6101513843143085,-0.015342780241673182,0.9250067252978096,-0.89118585784334,0.628755610379534,-0.7509799578365062],[-1.201312836139254,0.7184951004629125,-0.8425479342253976,-0.3041971710019764,0.8792349675116133,0.09886363636566253,0.3051103699255929,0.02605567164581485,0.5749606545485779,0.3395780211597372],[0.5292359363692047,0.0606188392795417,-0.7315157779130694,-0.00501683841818279,0.09813232863093058,-0.26753218650272714,-0.502357515919422,0.8513760070628198,-0.7086840058216592,-0.5791161478777496]]},"bias_h":{"rows":10,"cols":1,"data":[[-0.24884668010915556],[-0.4127380560930227],[-0.1858473342045885],[0.8547843964888542],[-0.356452818524144],[0.6159113514009298],[-0.9684396753890119],[-0.24619634949789448],[-0.6186763451203645],[-0.3253633911599021]]},"bias_o":{"rows":4,"cols":1,"data":[[0.3735281912185884],[-0.5641444191574738],[-0.7273727107061712],[-0.7737071422441435]]},"learning_rate":0.1,"activation_function":{}},"history":{"rock":[],"paper":[],"scissor":[]},"choice":"paper","choice_code":1,"choice_history":["paper"],"choice_code_history":[1]},{"id":"lywl1mxl1cvt53yuqc6","r":20,"highlight":false,"position":{"isPInst":true,"x":144.89974809699697,"y":46.64272727530004,"z":0},"velocity":{"isPInst":true,"x":-0.18437175526765248,"y":0.40380689418313565,"z":0},"score":0,"prey_score":0,"fitness":0,"brain":{"input_nodes":6,"hidden_nodes":10,"output_nodes":4,"weights_ih":{"rows":10,"cols":6,"data":[[-0.5577447220864045,-0.5280588105365194,0.04519943616663746,0.7029168723254422,-0.8758429507517445,0.763820223371932],[0.8955526617417555,-0.1878587113985306,-0.6485973409029961,-0.7567043090672065,-0.12270031680010868,1.4709680517065453],[-1.0296387498853474,0.7351567866159309,-0.43515723555408714,0.20147207594623892,-0.20979866867927432,0.6686036601425065],[0.6670399038284357,-0.40335673304553366,-0.20164142726316525,-0.8348041767382351,-0.7101554269398918,0.5994558129736491],[-0.8689084114567969,0.8258841538756831,-0.5438831419906394,-0.7969094365119301,-0.33096849923248595,-0.5900303256592103],[0.8668860338407267,-0.9520297379478504,-0.9050460347404673,0.2890450836577956,0.2119899823792486,0.7017273661303594],[-0.16812647688485036,-0.8512798032038389,-0.3504330885495988,-0.30995016285394306,-1.0817906493946126,0.34778443079832266],[-1.7969835443671047,-0.6216274285383383,0.3314384388523952,1.0840839512489815,-0.2818443670618418,0.05030301879256349],[2.0677262918036723,0.5585704224524976,0.33176578953007985,0.9453879798950475,0.9668358943467132,-0.3782269317032336],[0.4227987863456054,-0.17813528402949075,-0.29427557676948424,-0.041836138368080644,0.7775342925796234,-0.3274987862678991]]},"weights_ho":{"rows":4,"cols":10,"data":[[-0.18019488687517038,0.3163214642548413,2.396076529076124,0.5920257913827083,0.5611058883578033,-0.3650049807497955,-1.375867311724892,0.26374257653750544,-0.921802081626296,-0.8120678180773919],[0.8717131592276273,0.3929687196753928,0.36888145183605037,-0.6961688440325768,0.8982711985544469,-0.14884550038653188,0.9250067252978096,-0.8147793106159894,2.7148504269595404,-0.7509799578365062],[-0.3468410921521079,0.7184951004629125,-0.8425479342253976,-0.3041971710019764,0.8792349675116133,0.09886363636566253,0.29979249318038637,1.0531557904806492,0.14050157227689897,0.054856274900410895],[0.6858364579550495,0.14003470644469238,-0.7315157779130694,-0.00501683841818279,0.09813232863093058,-0.26753218650272714,-0.03504308052008165,0.8513760070628198,-0.9201677764725038,-0.5791161478777496]]},"bias_h":{"rows":10,"cols":1,"data":[[-0.24884668010915556],[-0.41621156360003997],[-0.5370499935841737],[0.8547843964888542],[-0.2615233143113814],[0.6159113514009298],[-0.9684396753890119],[-0.24619634949789448],[-0.6186763451203645],[-0.3253633911599021]]},"bias_o":{"rows":4,"cols":1,"data":[[0.3735281912185884],[-0.5641444191574738],[-0.7273727107061712],[-0.7737071422441435]]},"learning_rate":0.1,"activation_function":{}},"history":{"rock":[],"paper":[],"scissor":[]},"choice":"paper","choice_code":1,"choice_history":["paper"],"choice_code_history":[1]},{"id":"lywl1mxldkpjfggf53d","r":20,"highlight":false,"position":{"isPInst":true,"x":35.588503081860836,"y":20,"z":0},"velocity":{"isPInst":true,"x":-0.382065250715095,"y":0.01786839690385622,"z":0},"score":0,"prey_score":0,"fitness":0,"brain":{"input_nodes":6,"hidden_nodes":10,"output_nodes":4,"weights_ih":{"rows":10,"cols":6,"data":[[-0.7306313770933529,-0.8702205466473535,0.6240912315210316,0.1108732044191571,0.5054707575657593,-0.09700199395203254],[-1.39815794041203,0.4326392178056233,0.23553119192972094,0.15496676654126285,0.5666391304392695,0.7880432005509603],[0.426279688986992,-0.39409229182445715,-0.9031486590544451,0.7446657705401107,-0.436453913256567,-0.9642423206221835],[-0.304314593093574,0.7701093545668223,0.5702854277388987,-0.2581664429976849,0.6598945283198758,-1.051796505402054],[0.155943231478318,-0.41289501020277486,0.3729258695960831,0.8166272753042709,-0.0859922880585886,-0.6456163663926131],[-0.6204548250734039,-0.5728372036247301,0.2768242064500237,0.81597026559895,0.24594296784221076,-0.7367292051530288],[-0.4217178551336831,0.4743359590070612,0.1869330674679328,-0.659725310865229,-0.6007071589149877,-0.820321546468652],[-0.03372565070001654,0.31177829156780573,-0.8068633767020423,0.1774149790472621,0.032117137747589286,0.8723607035368581],[0.6800252764907873,0.011401846024911233,0.06705079726380259,1.169512115642949,-0.6766087147455662,-0.6496318716015148],[-0.9213316213105376,-0.8102104279564171,-0.3123084806264864,1.4256837544173437,0.11405090087685998,-0.8734413549422446]]},"weights_ho":{"rows":4,"cols":10,"data":[[1.9265845820524947,-0.26140720042579524,1.5585688787130518,-0.22480375969574062,-0.47344883073814037,0.3340028623321851,1.038632474622121,0.39182135690462694,-0.36518547503175647,0.5946562732403042],[-1.586709361543693,0.036741358506436506,0.19440433253186873,-0.9348896073503741,0.20631640637587711,-0.07464443648441454,-0.29841336051550704,-0.5338627427601539,-0.7820248811307171,-0.8367247090978207],[-0.847951385691033,0.39366715210708403,-0.020085844704336164,-0.21420963517863223,-0.8998367589256571,-2.241713725715111,-0.5629398461692849,-0.360402945625661,-0.7156760075183795,-0.32852670524143157],[1.5242242222243412,-0.019127466024290385,0.621866477498906,-0.794981799866131,-0.5872068689738179,-0.3724325907083843,-1.3486232063928716,-0.7629567646696902,-0.7177698391795144,0.13134018585214635]]},"bias_h":{"rows":10,"cols":1,"data":[[0.1572444744490924],[0.9519474480411634],[0.06876633056021841],[-0.24439523961455167],[-1.4357437394522128],[0.585974614176175],[-0.6208124205373537],[-0.7294755343720163],[-0.6286355875148057],[-0.19941701430861514]]},"bias_o":{"rows":4,"cols":1,"data":[[0.33606359638127303],[-0.5976366133644342],[0.9298168786485657],[0.6682845856099958]]},"learning_rate":0.1,"activation_function":{}},"history":{"rock":[],"paper":[],"scissor":[]},"choice":"scissor","choice_code":2,"choice_history":["scissor"],"choice_code_history":[2]},{"id":"lywl1mxlavp78sx73me","r":20,"highlight":false,"position":{"isPInst":true,"x":106.76648521992782,"y":22.527395861120407,"z":0},"velocity":{"isPInst":true,"x":0.27625178358522207,"y":-0.41756717907803464,"z":0},"score":0,"prey_score":0,"fitness":0,"brain":{"input_nodes":6,"hidden_nodes":10,"output_nodes":4,"weights_ih":{"rows":10,"cols":6,"data":[[-0.8434432352490115,0.02096227740352763,0.6240912315210316,-0.9188217454030938,0.5054707575657593,-0.20309526933955113],[-0.47740052541505973,0.4326392178056233,0.23553119192972094,0.15496676654126285,0.5666391304392695,0.8093286287992801],[0.426279688986992,0.6178383759569563,-0.9031486590544451,0.7446657705401107,-0.436453913256567,-0.9642423206221835],[-0.304314593093574,0.7701093545668223,0.5702854277388987,-0.5564155017390457,0.6598945283198758,-0.8258009880686341],[0.155943231478318,-0.4929182719434859,1.0388890367062258,1.2940649304812564,-0.0859922880585886,-0.6456163663926131],[-0.3633494294493036,-0.8569499417826925,0.2768242064500237,0.81597026559895,-0.0726272485506354,-0.7367292051530288],[-0.4217178551336831,0.6619686279397177,0.1869330674679328,-0.659725310865229,-0.6007071589149877,-0.820321546468652],[-0.03372565070001654,0.12573005027002593,-0.8068633767020423,0.1774149790472621,0.032117137747589286,0.8723607035368581],[1.684857401440786,0.011401846024911233,0.06705079726380259,0.9809396159250023,-0.6766087147455662,-0.5382704884319915],[-0.9213316213105376,-0.4203900669574889,-0.3123084806264864,0.8811399196431688,0.11405090087685998,-1.6978969360559015]]},"weights_ho":{"rows":4,"cols":10,"data":[[0.9177104047191316,-0.05854366621471846,0.09931329572151526,-0.22480375969574062,-0.47344883073814037,0.3340028623321851,1.1408053360082795,0.39182135690462694,-0.36518547503175647,1.6071908163683504],[-0.8667853955947193,-0.31677161679194166,0.0995396447641259,-0.8430825705476722,-0.007645622177567368,0.3636719825300405,0.5777635802441337,-0.15418360216678295,-0.7820248811307171,-0.8367247090978207],[-0.847951385691033,0.39366715210708403,-0.020085844704336164,-0.21420963517863223,-0.8998367589256571,-0.7664140559465737,-0.8996059900321283,-0.814529858012405,-0.7156760075183795,-0.32852670524143157],[0.49809284353917604,-0.019127466024290385,0.9108725881485147,-0.794981799866131,-0.5872068689738179,-0.3724325907083843,-0.6416734965757489,-0.7629567646696902,-0.7177698391795144,0.13134018585214635]]},"bias_h":{"rows":10,"cols":1,"data":[[0.1572444744490924],[0.9519474480411634],[0.06876633056021841],[-0.5074987289949823],[-0.9942093111777965],[0.28465167122016455],[-0.7366562100664595],[-0.7294755343720163],[-0.6286355875148057],[-0.19941701430861514]]},"bias_o":{"rows":4,"cols":1,"data":[[0.33606359638127303],[0.7745818295206045],[0.9298168786485657],[0.6194301281319388]]},"learning_rate":0.1,"activation_function":{}},"history":{"rock":[],"paper":[],"scissor":[]},"choice":"scissor","choice_code":2,"choice_history":["scissor"],"choice_code_history":[2]}]
