[{"id":"lyy1xl6uwz82f4paym9","r":20,"highlight":false,"position":{"isPInst":true,"x":130.20300601441457,"y":22.82627310946301,"z":0},"velocity":{"isPInst":true,"x":0.05968952394433824,"y":-0.025451050735634695,"z":0},"score":0,"prey_score":0,"fitness":0,"brain":{"input_nodes":6,"hidden_nodes":10,"output_nodes":4,"weights_ih":{"rows":10,"cols":6,"data":[[7.577804669605621,6.425664113981111,3.2823519432518165,-3.752758871609279,1.436949947679216,3.2007064638705502],[-3.868571144588158,-9.553263310514838,3.9051760820151418,4.397097011777748,-4.971235205397761,9.800047059347337],[-2.300119917662617,3.9796466256858425,4.09071810832523,2.28961290893631,-6.125277215588214,-7.569741204464158],[2.674147790995112,2.3617925179967942,-5.8105006066347675,-2.3146764329394025,-0.2747620383530313,9.34962493479754],[0.6731342296560117,3.691329384291334,1.9710471867440502,-6.457915661292091,9.540150018485074,9.604482785866319],[13.496519940913831,5.3224106416920245,0.20843629375255018,0.025440342470466726,-8.177607702569878,9.94620293862057],[1.2619844019068387,-1.4615362126008105,-8.05881105788257,5.800469529241656,-7.5554612869247055,5.458398242562427],[-9.26576761841044,2.991935169897123,-1.0392167183739038,6.334519936136743,0.1309827354178552,-0.023913934882953125],[-0.23466111762187264,-1.1954699213818432,-3.7724888518848614,6.001059358498219,-10.324405562986339,-4.459705441315675],[3.3076396333918257,-1.2501969984441028,-9.39437238590433,1.4887661055833132,-4.682455376458761,-0.9140788527334375]]},"weights_ho":{"rows":4,"cols":10,"data":[[1.6564330510805876,-3.917710668483201,-0.521386304297792,-2.1031720494393777,-13.05184455855589,6.39808879506054,-5.330093811921416,-2.4499077950520127,-1.196333196015665,-6.33650061382389],[2.975971404794986,-9.281820950310562,-15.975355738657358,3.3469701099176907,2.792716653614,4.0644153511346754,-0.8903204572086506,-4.593739916712287,-4.760849186993583,-10.50448463821348],[-0.19706528769583515,10.316664425395594,2.605170839580153,-10.437386428330404,-0.5370186180705704,6.368414212232025,4.0961591702338715,-11.900630121342484,-6.940610141287916,2.5546651431256415],[-2.976392053677799,-8.651827842700015,-4.039441076889611,0.8686822144621451,-13.061633974385886,-6.358731148980365,0.8525074780109468,0.9415684014369311,6.26598131279369,7.513613326022829]]},"bias_h":{"rows":10,"cols":1,"data":[[-4.785716091390942],[0.008129233133950087],[2.834270053788503],[2.8882741146768423],[-2.2691613620589917],[-15.830960314593545],[8.727435816251386],[4.202337099013412],[-5.976312856923554],[3.3689582914312197]]},"bias_o":{"rows":4,"cols":1,"data":[[4.2674355065391145],[-9.504011947276354],[2.494449617910271],[12.913835201480213]]},"learning_rate":0.1,"activation_function":{}},"history":{"rock":[],"paper":[],"scissor":[]},"choice":"rock","choice_code":0,"choice_history":["rock"],"choice_code_history":[0]},{"id":"lyy1xl6ufge1mcz1lcw","r":20,"highlight":false,"position":{"isPInst":true,"x":171.10937148455687,"y":27.571867564409548,"z":0},"velocity":{"isPInst":true,"x":0.12327582007062099,"y":0.1130046167051939,"z":0},"score":0,"prey_score":0,"fitness":0,"brain":{"input_nodes":6,"hidden_nodes":10,"output_nodes":4,"weights_ih":{"rows":10,"cols":6,"data":[[7.577804669605621,6.425664113981111,3.2823519432518165,-3.752758871609279,1.9354554593328595,3.2007064638705502],[-3.868571144588158,-9.553263310514838,3.9051760820151418,4.397097011777748,-4.742904235930059,9.800047059347337],[-2.300119917662617,3.9796466256858425,4.09071810832523,1.6445027608008904,-6.125277215588214,-7.569741204464158],[2.674147790995112,2.5606503362110105,-5.8105006066347675,-2.3146764329394025,-0.2747620383530313,9.34962493479754],[0.6731342296560117,3.9036747993050853,1.9710471867440502,-6.457915661292091,9.540150018485074,9.604482785866319],[13.496519940913831,5.3224106416920245,0.20843629375255018,0.025440342470466726,-8.177607702569878,9.94620293862057],[1.2619844019068387,-1.4615362126008105,-8.05881105788257,5.800469529241656,-7.201581973129348,5.458398242562427],[-9.26576761841044,2.991935169897123,-1.0392167183739038,6.143215552839356,0.1309827354178552,-0.023913934882953125],[-0.23466111762187264,-1.7057070462728046,-3.7724888518848614,6.001059358498219,-10.324405562986339,-4.459705441315675],[3.3076396333918257,-1.2501969984441028,-9.39437238590433,1.4887661055833132,-4.696084009325661,-0.9140788527334375]]},"weights_ho":{"rows":4,"cols":10,"data":[[1.6564330510805876,-3.917710668483201,-0.521386304297792,-1.5575614723890332,-13.05184455855589,6.39808879506054,-5.330093811921416,-2.4499077950520127,-1.196333196015665,-6.33650061382389],[2.975971404794986,-9.281820950310562,-15.975355738657358,3.3469701099176907,2.792716653614,4.0644153511346754,-1.4313357930530248,-4.593739916712287,-4.760849186993583,-10.50448463821348],[-0.19706528769583515,10.514034444517215,2.605170839580153,-10.437386428330404,-0.5370186180705704,6.894339155929361,4.0961591702338715,-11.900630121342484,-6.940610141287916,2.4334345339161594],[-2.976392053677799,-8.651827842700015,-4.039441076889611,0.8686822144621451,-12.937770428821578,-6.358731148980365,0.8525074780109468,0.7940118259012123,6.547075434373204,7.513613326022829]]},"bias_h":{"rows":10,"cols":1,"data":[[-4.785716091390942],[0.008129233133950087],[2.834270053788503],[3.2447843303933683],[-2.2691613620589917],[-15.882061525784081],[8.727435816251386],[4.202337099013412],[-5.976312856923554],[3.3689582914312197]]},"bias_o":{"rows":4,"cols":1,"data":[[4.2674355065391145],[-9.504011947276354],[2.494449617910271],[12.913835201480213]]},"learning_rate":0.1,"activation_function":{}},"history":{"rock":[],"paper":[],"scissor":[]},"choice":"rock","choice_code":0,"choice_history":["rock"],"choice_code_history":[0]},{"id":"lyy1xl6ua3kkact299i","r":20,"highlight":false,"position":{"isPInst":true,"x":57.978335513920875,"y":20,"z":0},"velocity":{"isPInst":true,"x":0.48299592865522567,"y":-0.46971598467558806,"z":0},"score":0,"prey_score":0,"fitness":0,"brain":{"input_nodes":6,"hidden_nodes":10,"output_nodes":4,"weights_ih":{"rows":10,"cols":6,"data":[[0.8543035210182967,6.806987309638053,-14.935565118242295,-9.440059311303845,1.928280604366996,-7.370212003110353],[-3.2900115617637757,4.878866831261017,-6.338239584655416,9.306977212221055,-1.8957623132955592,6.725466977523029],[7.439432630316586,1.8182511467657638,-5.599410776193944,-7.619375004404986,4.566143387026565,-2.0218012476004463],[-6.136469278554809,2.948156422800057,4.401233960331155,-9.150647168069007,2.522920071295644,7.827397970783743],[3.5038579803075356,1.6895875408480499,4.93121727814516,-5.135016663774776,-21.74099118303202,-0.41938364470380907],[-6.536464671263542,5.848959680443485,-2.3783054921219904,-8.264157515866076,-0.23988113784941834,1.3752989547728893],[-0.506136765001307,-0.03392785708582419,-6.687513159776205,-3.321462262068531,5.688634749097413,1.8478661683453432],[-6.590551440155132,0.6191935164082489,6.655728944545967,8.897471206524395,-3.2238105872339156,-3.3174410071390676],[-4.821204703936285,-9.510666875745072,-0.3006472551631345,6.363174355305698,9.358796217745066,-1.0700900306920755],[5.362516731178326,4.819860448366766,6.352034122100248,7.271362007873674,4.846920118678378,-6.822468560207999]]},"weights_ho":{"rows":4,"cols":10,"data":[[-5.964939262034638,0.45208910188456874,8.34054327214531,0.7581580508424747,5.061889919810224,0.8109608720385182,-0.1933881875378166,8.344624271535723,4.857530989647399,4.3538963809741515],[7.651002384575339,-1.5279103634037048,-7.5603445487719245,0.6416075882476793,10.349195770252518,-5.991349120442497,1.753476833732698,-3.4408531203141894,5.37334019959397,-1.8987136451348876],[5.75388708670264,1.0790391103308266,-1.7282417808990083,11.891301741300671,0.704366632124983,-9.3673160686699,-4.5607162777140235,9.58759838228441,0.6522619421981448,-7.884059058836524],[2.956235750838891,-9.258052462013524,7.165431719193219,-6.017696402910117,-1.1294561275003174,-0.12693815136468067,0.6554959469180214,-18.008810693284588,0.5591274619487417,-7.932183829985194]]},"bias_h":{"rows":10,"cols":1,"data":[[-11.112778868242728],[3.262380866725813],[0.03988061822228306],[3.0695477440581334],[-2.8020979544792137],[-6.804353676432675],[-4.127388261807794],[7.55699667683785],[-1.6580133779334187],[-3.364567599493621]]},"bias_o":{"rows":4,"cols":1,"data":[[4.553857601435051],[11.736771175883417],[-7.558953560903087],[-0.6823527028900945]]},"learning_rate":0.1,"activation_function":{}},"history":{"rock":[],"paper":[],"scissor":[]},"choice":"paper","choice_code":1,"choice_history":["paper"],"choice_code_history":[1]},{"id":"lyy1xl6ucpb0uel2gy7","r":20,"highlight":false,"position":{"isPInst":true,"x":82.94634253229408,"y":54.73100413550818,"z":0},"velocity":{"isPInst":true,"x":-0.3990016383858934,"y":0.1883161010834915,"z":0},"score":0,"prey_score":0,"fitness":0,"brain":{"input_nodes":6,"hidden_nodes":10,"output_nodes":4,"weights_ih":{"rows":10,"cols":6,"data":[[0.8543035210182967,6.806987309638053,-14.935565118242295,-9.440059311303845,1.928280604366996,-7.370212003110353],[-3.2900115617637757,4.878866831261017,-5.71566411117688,9.306977212221055,-1.8957623132955592,6.725466977523029],[7.439432630316586,1.4978184307216107,-5.599410776193944,-7.619375004404986,4.566143387026565,-1.784318924723388],[-6.136469278554809,2.948156422800057,4.401233960331155,-9.150647168069007,2.522920071295644,7.827397970783743],[3.5038579803075356,1.6895875408480499,4.93121727814516,-5.135016663774776,-22.272199713196624,-0.41938364470380907],[-6.536464671263542,5.848959680443485,-2.3783054921219904,-8.264157515866076,-0.23988113784941834,1.2385683928362201],[-0.506136765001307,-0.03392785708582419,-6.687513159776205,-3.321462262068531,5.688634749097413,1.8478661683453432],[-6.590551440155132,0.6191935164082489,6.655728944545967,8.897471206524395,-3.2238105872339156,-3.3174410071390676],[-4.821204703936285,-9.510666875745072,-0.3006472551631345,6.363174355305698,9.358796217745066,-1.0700900306920755],[5.362516731178326,4.819860448366766,6.352034122100248,7.271362007873674,5.136435512574544,-6.822468560207999]]},"weights_ho":{"rows":4,"cols":10,"data":[[-5.964939262034638,0.45208910188456874,8.34054327214531,0.7581580508424747,5.061889919810224,0.8109608720385182,-0.1933881875378166,8.344624271535723,4.857530989647399,4.3538963809741515],[7.191886525440916,-1.5279103634037048,-7.5603445487719245,0.6416075882476793,10.349195770252518,-6.886472947295369,1.753476833732698,-3.4408531203141894,5.37334019959397,-0.648052512848259],[5.343882711435238,1.0790391103308266,-1.7282417808990083,12.182703031278752,0.704366632124983,-9.3673160686699,-4.5607162777140235,9.58759838228441,0.6522619421981448,-8.111363025705385],[2.956235750838891,-9.258052462013524,7.165431719193219,-6.017696402910117,-0.8265150524635346,-0.12693815136468067,0.6554959469180214,-18.008810693284588,0.5591274619487417,-7.932183829985194]]},"bias_h":{"rows":10,"cols":1,"data":[[-11.112778868242728],[3.8355585155626826],[0.03988061822228306],[3.0695477440581334],[-2.940622534769479],[-6.804353676432675],[-5.049034555895997],[7.55699667683785],[-1.0971993371881243],[-3.352232569427808]]},"bias_o":{"rows":4,"cols":1,"data":[[4.822582549801901],[11.736771175883417],[-7.558953560903087],[-0.6823527028900945]]},"learning_rate":0.1,"activation_function":{}},"history":{"rock":[],"paper":[],"scissor":[]},"choice":"paper","choice_code":1,"choice_history":["paper"],"choice_code_history":[1]},{"id":"lyy1xl6uo3o5owpiiyp","r":20,"highlight":false,"position":{"isPInst":true,"x":147.19922792715823,"y":59.72408267306203,"z":0},"velocity":{"isPInst":true,"x":-0.3088122134661957,"y":0.14629128524204726,"z":0},"score":0,"prey_score":0,"fitness":0,"brain":{"input_nodes":6,"hidden_nodes":10,"output_nodes":4,"weights_ih":{"rows":10,"cols":6,"data":[[-3.447308561988112,0.23415764274060444,-0.9800873448818231,2.057843598275455,-8.883651237255597,9.850289815837627],[-3.070453142903859,1.5974881217279042,2.402970504494352,-5.0500738799931115,8.267607968665901,6.4598216639951564],[2.4074009020820273,-6.618339140910745,1.794394640862813,-2.5939108995182476,-5.854051846912509,7.290000955887227],[-2.4881512039109994,-2.800399126966194,-2.596785205142415,8.995902089013418,0.23004254474432306,-4.260264297919757],[3.402672541902862,-0.7764988917696702,-2.1146594417381936,2.728709043213104,-4.361971521102725,-1.80178295893132],[3.3000452794367936,-11.213430441701256,-2.6288974495694033,-7.715124945489533,1.615756827971689,-5.667087401956005],[1.44947255381044,-0.798684817711848,-2.00439160209853,-4.032024195035997,-2.193438708597176,-7.379186223360012],[5.15145833672808,-3.298810587949209,8.003895829565336,7.947105924206413,-1.363025205655435,0.8964364417198786],[-8.879752547400324,-2.4352360761049847,4.256282052183809,-4.440435818866465,-0.4982529025590183,2.7714067414103924],[7.02735123352417,-1.3475606050515156,-0.6377596023186407,-6.271486127203119,0.24210266488867538,-6.614723868841507]]},"weights_ho":{"rows":4,"cols":10,"data":[[-1.1100014823910695,6.871867215828922,4.988683649613012,-4.10830640291244,3.1239992127281155,3.2487273151980274,-4.831571518592153,-6.467984188545941,-6.974914871039533,-4.5598502220301915],[3.356342185237304,-4.317624530121093,-5.871645234830195,-0.5619629994369124,-2.9567714827140144,5.55590646440003,0.7716417271317875,5.093166827106846,-1.03429251762206,3.311223761064654],[-5.565998541174923,-3.1656317771585565,-0.39181269858154955,2.61237711431998,-3.2453255824349365,-4.34807957679707,-2.745543996777272,-3.5893077660331176,2.240710364444224,2.259748251943102],[-4.966663699910233,-2.1428944122441043,-6.468572703858847,6.534539166158275,14.667126534702414,-2.9384112322203246,-10.467168257105389,-0.6713252285638289,-0.9309867168834791,-2.6397929172483523]]},"bias_h":{"rows":10,"cols":1,"data":[[7.148034426469743],[-1.388644095516708],[-8.045136329444423],[4.119118955825861],[2.5049078751754523],[-2.3322413015693004],[-0.7867493052309869],[10.338402520138056],[-6.995261814396542],[-7.1544324448585055]]},"bias_o":{"rows":4,"cols":1,"data":[[0.4788428360934376],[-5.761322783224376],[-3.7143946925144453],[0.3254164100707248]]},"learning_rate":0.1,"activation_function":{}},"history":{"rock":[],"paper":[],"scissor":[]},"choice":"scissor","choice_code":2,"choice_history":["scissor"],"choice_code_history":[2]},{"id":"lyy1xl6uyfns6d7iizr","r":20,"highlight":false,"position":{"isPInst":true,"x":104.54101491326027,"y":20,"z":0},"velocity":{"isPInst":true,"x":-0.17803639162115115,"y":-0.17313671618807613,"z":0},"score":0,"prey_score":0,"fitness":0,"brain":{"input_nodes":6,"hidden_nodes":10,"output_nodes":4,"weights_ih":{"rows":10,"cols":6,"data":[[-3.447308561988112,0.23415764274060444,-0.9800873448818231,1.6319495693028812,-8.883651237255597,9.850289815837627],[-3.070453142903859,1.5974881217279042,2.402970504494352,-5.0500738799931115,8.679847449386376,5.87037502614965],[2.4074009020820273,-6.618339140910745,1.794394640862813,-2.5939108995182476,-5.854051846912509,7.290000955887227],[-2.4881512039109994,-2.800399126966194,-2.596785205142415,8.995902089013418,0.23004254474432306,-4.260264297919757],[3.402672541902862,-0.7778333067776937,-2.1146594417381936,2.728709043213104,-4.361971521102725,-1.80178295893132],[3.3000452794367936,-11.213430441701256,-2.6288974495694033,-7.715124945489533,1.615756827971689,-5.667087401956005],[1.095793392089269,-0.4177849438394581,-2.5142444055566533,-4.032024195035997,-2.193438708597176,-7.0458963219564685],[5.15145833672808,-3.298810587949209,8.003895829565336,7.947105924206413,-1.363025205655435,0.8964364417198786],[-8.879752547400324,-2.4352360761049847,4.256282052183809,-4.68024179285221,-0.934989675468696,2.7714067414103924],[7.02735123352417,-1.2826785465155857,-0.6377596023186407,-6.271486127203119,0.24210266488867538,-6.614723868841507]]},"weights_ho":{"rows":4,"cols":10,"data":[[-1.1100014823910695,6.871867215828922,4.986556861583737,-4.10830640291244,3.2637396431876398,3.2487273151980274,-4.831571518592153,-6.467984188545941,-6.974914871039533,-4.5598502220301915],[3.356342185237304,-4.317624530121093,-5.871645234830195,-1.4128777146154294,-3.082511991756746,5.55590646440003,0.7716417271317875,5.231397968554095,-1.03429251762206,3.311223761064654],[-5.565998541174923,-2.7777161187916466,-0.39181269858154955,2.61237711431998,-3.2453255824349365,-4.34807957679707,-2.5225685826302193,-3.5893077660331176,2.8357998350019105,2.259748251943102],[-5.549698249644607,-2.1428944122441043,-6.468572703858847,6.534539166158275,14.667126534702414,-2.9384112322203246,-10.467168257105389,-0.6713252285638289,-0.9309867168834791,-2.442275386463226]]},"bias_h":{"rows":10,"cols":1,"data":[[7.2695523060206],[-1.1378545640924238],[-8.045136329444423],[4.119118955825861],[2.5049078751754523],[-1.6353015621339697],[-1.6273356601445021],[10.338402520138056],[-7.0598588119966506],[-7.1544324448585055]]},"bias_o":{"rows":4,"cols":1,"data":[[0.4788428360934376],[-5.761322783224376],[-3.7143946925144453],[0.2084996669237819]]},"learning_rate":0.1,"activation_function":{}},"history":{"rock":[],"paper":[],"scissor":[]},"choice":"scissor","choice_code":2,"choice_history":["scissor"],"choice_code_history":[2]}]
