[{"id":"lywklypspo26kp9jl5f","r":20,"highlight":false,"position":{"isPInst":true,"x":121.17486383979767,"y":20,"z":0},"velocity":{"isPInst":true,"x":0.4667047628293739,"y":0.15896927253230286,"z":0},"score":0,"prey_score":0,"fitness":0,"brain":{"input_nodes":6,"hidden_nodes":10,"output_nodes":4,"weights_ih":{"rows":10,"cols":6,"data":[[0.5508011640855702,-1.4564332840204157,-0.3029220992563092,-0.7285575772593754,-1.3980899973348913,0.9910074068698866],[-0.3576449290109464,-1.2376806427876539,0.8530503166978602,-0.5897959439408009,-0.8764798712624144,0.3706883332793758],[-0.31177575562684584,1.5822724112225708,0.36366549752470695,0.5787393604302258,2.303607641643428,0.697792656502589],[1.2288175919138082,-0.41590047589084483,0.05921504507493064,1.6914154911071009,0.914490860060549,-0.03904627316485901],[-2.2292969401215132,0.12262829985741025,1.9609245320348025,1.3694803314953987,2.335724273398096,-0.5961469197953895],[-1.1124845881449754,-0.13205807801433705,-2.227569572132447,2.0285413085146473,0.6327773745742669,-1.362118256954259],[1.4886643992099962,1.1824004323156634,0.5178011577236195,-0.14627858995109477,0.010984546886836699,0.09815585362281992],[0.6874558072676051,0.5980588664631158,-0.06331589584552397,0.20532820647247907,0.23395189416280104,-0.29673280908465716],[-0.7846917181723002,-2.4060399508880517,0.19290320141001538,0.2416777104314769,0.44623314488488885,-0.7045826103914605],[1.4193495495277646,0.8810331484298254,-0.25463251131556736,0.5777719835812342,-1.742511610037462,-0.41417814687684984]]},"weights_ho":{"rows":4,"cols":10,"data":[[0.47689465940473424,0.4975284614382823,1.2918760068234307,-1.0821552894547417,-0.987974333916471,0.8627940535554658,0.219075158988094,0.28544083349643706,-0.19711202738713052,-0.9965303463988205],[-0.6379979988855751,-0.07263230942360885,0.1012173900013501,0.617725624048967,-0.487684831989286,-1.654918844109387,0.37940611158126963,2.9706043457616036,-0.6042851424771527,-0.3062512385292879],[-0.9242039295913396,-2.165491141318654,-1.5853751812046855,2.1458609079773816,0.02937235707179675,-0.7894795948525247,-0.7971986854553297,-0.41702133273494113,0.0381399857103355,1.2004814379595998],[-0.22565035554205254,1.2018732149083566,0.543450903205666,0.5962726082991141,0.16345796524381373,-0.6167189233626954,0.3943202816218798,0.4577489826390773,-1.0742364843437726,-3.411687419265169]]},"bias_h":{"rows":10,"cols":1,"data":[[-2.064477717679088],[-0.6323339091925652],[-0.06151651882128635],[1.6182528596186234],[0.189576321602913],[-0.3177959140068556],[0.8163197484700266],[0.5193552889236477],[-1.5836462549692485],[-0.8088498517902569]]},"bias_o":{"rows":4,"cols":1,"data":[[-1.7141697406703211],[-2.2411078760467342],[-0.06027048926788314],[-0.3842096890904959]]},"learning_rate":0.1,"activation_function":{}},"history":{"rock":[],"paper":[],"scissor":[]},"choice":"rock","choice_code":0,"choice_history":["rock"],"choice_code_history":[0]},{"id":"lywklypt104cdn0qtnk","r":20,"highlight":false,"position":{"isPInst":true,"x":106.44299525605781,"y":35.533017502542876,"z":0},"velocity":{"isPInst":true,"x":-0.3365190358005692,"y":-0.3044407233040549,"z":0},"score":0,"prey_score":0,"fitness":0,"brain":{"input_nodes":6,"hidden_nodes":10,"output_nodes":4,"weights_ih":{"rows":10,"cols":6,"data":[[0.5508011640855702,-0.2140783475689748,0.23183004714876898,-0.7285575772593754,-1.3980899973348913,0.9910074068698866],[-0.3576449290109464,-1.2376806427876539,0.8530503166978602,-0.8144711633130559,-0.8764798712624144,0.3706883332793758],[-0.09959821482242923,1.5822724112225708,0.36366549752470695,0.5787393604302258,1.6794090936868749,0.49471525072754224],[1.9528422144104889,-0.41590047589084483,0.05921504507493064,1.6914154911071009,0.9553345550762197,-0.03904627316485901],[-2.046643521743,0.12262829985741025,1.670648367964451,1.3694803314953987,2.335724273398096,-0.5961469197953895],[-1.1124845881449754,-0.13205807801433705,-2.227569572132447,2.214680668891535,0.6327773745742669,-1.362118256954259],[1.2541543353679323,0.7940767991448131,0.5908989295509054,-0.14627858995109477,0.010984546886836699,0.7940301968353578],[0.6874558072676051,0.5980588664631158,-0.26539977151063027,0.20532820647247907,0.3771226001041752,-0.29673280908465716],[-0.7846917181723002,-2.4060399508880517,0.383555322397659,0.2416777104314769,0.3310408849019849,-0.7045826103914605],[1.4193495495277646,0.8810331484298254,-0.25463251131556736,0.5777719835812342,-1.742511610037462,-0.41417814687684984]]},"weights_ho":{"rows":4,"cols":10,"data":[[0.47689465940473424,0.4975284614382823,1.2918760068234307,-1.0821552894547417,-0.987974333916471,0.8627940535554658,0.219075158988094,0.28544083349643706,-0.19711202738713052,-0.6536655955067421],[-0.6379979988855751,-0.07263230942360885,0.1012173900013501,0.524809413714882,-0.487684831989286,-1.654918844109387,-0.11683214889526311,2.9706043457616036,-1.0639054284879432,-0.3062512385292879],[-1.158463271917991,-1.3712576492531197,-1.5853751812046855,2.1458609079773816,0.02937235707179675,-0.7894795948525247,-0.7971986854553297,-0.622677950663652,0.0381399857103355,1.2004814379595998],[-0.22565035554205254,1.2018732149083566,0.543450903205666,0.5521291952785168,-1.0610258701448554,-0.6167189233626954,0.3943202816218798,0.5115564604074611,-1.0742364843437726,-3.411687419265169]]},"bias_h":{"rows":10,"cols":1,"data":[[-1.6058249363372232],[-0.6323339091925652],[-0.06151651882128635],[1.6182528596186234],[0.189576321602913],[-0.3177959140068556],[0.8163197484700266],[1.4132172000543135],[-1.5836462549692485],[-0.8088498517902569]]},"bias_o":{"rows":4,"cols":1,"data":[[-1.7141697406703211],[-1.2581108230082563],[0.3690729222187916],[-1.1893698451833035]]},"learning_rate":0.1,"activation_function":{}},"history":{"rock":[],"paper":[],"scissor":[]},"choice":"rock","choice_code":0,"choice_history":["rock"],"choice_code_history":[0]},{"id":"lywklyptpfmqnfkr92h","r":20,"highlight":false,"position":{"isPInst":true,"x":161.71327677676774,"y":20,"z":0},"velocity":{"isPInst":true,"x":0.2963884188211585,"y":-0.12113510083694212,"z":0},"score":0,"prey_score":0,"fitness":0,"brain":{"input_nodes":6,"hidden_nodes":10,"output_nodes":4,"weights_ih":{"rows":10,"cols":6,"data":[[-1.172080048125451,-0.04986717001246521,0.6620152879946087,-0.4630595348128813,0.924539314776987,-1.3643964660992223],[-0.8378267101196891,-2.1743159972429913,1.3615034499733667,1.118980757400847,1.5006865407593737,0.7297820179236576],[-1.595093932726062,0.3785171190457597,0.3203946713309161,1.3267071351711295,0.6214578808753211,2.2078670055162792],[1.1728174858551983,-0.8361431048189427,2.134340191359285,1.213608622048644,-0.9150578312516777,1.0162008383942789],[-1.4204086923305765,-1.2692727359216451,4.6928914479288295,-0.02905800445564466,0.6220015250117084,0.948739656062933],[1.0466290265359908,-1.2105657476437626,-2.2975020222903755,0.4051407654880541,0.34215810435161254,-0.7262980870868563],[-0.8572177685646252,-0.45594543697699513,-0.20071589324815975,-1.3293978444902683,1.4686293530467116,-0.18460311925613992],[-0.42504737115589825,0.3823233842589684,1.3035289455255152,0.2558005590220128,0.20969658361625976,-0.09964562614856001],[0.6311725819993239,-1.5057802439864612,-0.6247774810551349,0.13484300730696952,0.6654470940022498,0.5500524965570874],[-0.14944696818319092,0.2490095840655957,-0.8713982279346354,-2.082424178153688,-0.44524490537868844,-0.8713239702578179]]},"weights_ho":{"rows":4,"cols":10,"data":[[0.4035317804245593,0.09550129390917689,0.7482619077165675,0.910983674832184,1.5363278932442066,-0.0323365075038905,-1.8879460569799804,-0.5068886834186209,1.1519289506104393,0.9309175952658084],[1.5701946633535786,0.6892426132553333,0.506746683487695,-0.1734309535627685,-1.3738650663047816,-0.19961434446563212,0.23514519742937445,-0.9202455348759944,0.6087255863227576,-1.202644350314069],[-0.6550331018771984,1.7424891160543634,-0.6074745552912875,-0.7996077371263491,0.8793251641265593,-1.0685786685456413,-1.51359517083975,0.2675790533894852,0.3754298513897642,-0.3925110645440364],[1.9440147758153146,-0.2966041257005662,0.4674707115912202,-0.054492491594176296,-1.806848499626513,1.44943482220955,0.38835261024865086,0.030023348422026253,2.847465955976667,-0.12350183628408111]]},"bias_h":{"rows":10,"cols":1,"data":[[-0.40329541019192544],[-0.7158806906391025],[1.79642102227213],[1.224086678267149],[-0.1476913413323515],[-0.7535505736884511],[1.749966193872742],[0.9239951004203074],[-1.3596773228264991],[2.2864256395502425]]},"bias_o":{"rows":4,"cols":1,"data":[[1.440428679268672],[2.4649882081281316],[-1.6462445738043534],[0.40295945196217864]]},"learning_rate":0.1,"activation_function":{}},"history":{"rock":[],"paper":[],"scissor":[]},"choice":"paper","choice_code":1,"choice_history":["paper"],"choice_code_history":[1]},{"id":"lywklypt1sgfs9hxj91","r":20,"highlight":false,"position":{"isPInst":true,"x":116.2243604564009,"y":20.66548263999222,"z":0},"velocity":{"isPInst":true,"x":-0.09483895302434853,"y":0.24133322704435023,"z":0},"score":0,"prey_score":0,"fitness":0,"brain":{"input_nodes":6,"hidden_nodes":10,"output_nodes":4,"weights_ih":{"rows":10,"cols":6,"data":[[-1.172080048125451,0.7735902010653158,0.38674597825173085,-0.4630595348128813,0.924539314776987,-1.3643964660992223],[-0.9907012522590495,-2.1743159972429913,1.3615034499733667,1.3729375597558078,1.5006865407593737,0.7297820179236576],[-2.364717232379025,0.3785171190457597,0.19970974181685214,1.3267071351711295,0.6214578808753211,2.2078670055162792],[1.1728174858551983,-1.161709918886641,2.134340191359285,-0.40628061169296026,-0.9150578312516777,0.8543712097557339],[-1.4204086923305765,-1.2692727359216451,4.6928914479288295,-0.02905800445564466,0.7569852050948389,0.948739656062933],[1.0466290265359908,-1.1111140904562569,-2.2975020222903755,0.06931379515400143,0.34215810435161254,-0.7262980870868563],[-0.8572177685646252,-0.45594543697699513,-0.45762408909263474,-1.4828815232463641,1.4686293530467116,0.7127208461126266],[-0.41000249111053155,0.3823233842589684,1.3035289455255152,0.2558005590220128,0.4963621621881321,0.09167848882100671],[0.6311725819993239,-1.5057802439864612,-1.0852581779305857,-0.759742276924298,0.6654470940022498,0.5500524965570874],[-0.14944696818319092,0.2490095840655957,-1.0566419416103134,-2.082424178153688,-0.44524490537868844,-0.8713239702578179]]},"weights_ho":{"rows":4,"cols":10,"data":[[0.4035317804245593,0.31569421451792457,0.7482619077165675,1.208432362065278,1.5363278932442066,-0.0323365075038905,-1.8879460569799804,-0.5068886834186209,0.28573358122809484,0.9309175952658084],[1.5701946633535786,0.6892426132553333,0.506746683487695,-0.1734309535627685,-1.3738650663047816,-0.19961434446563212,0.23514519742937445,-0.9202455348759944,0.6087255863227576,-1.2336051656039682],[-0.6550331018771984,1.7424891160543634,-0.6074745552912875,-0.7996077371263491,1.3372591156911906,-1.219512633582598,-1.51359517083975,0.6178169585066257,0.3754298513897642,-0.3925110645440364],[1.9440147758153146,-0.2966041257005662,-0.30670429903063323,-0.054492491594176296,-1.806848499626513,1.5427231557325607,-0.12616215441999,0.030023348422026253,2.847465955976667,-0.2328212705075809]]},"bias_h":{"rows":10,"cols":1,"data":[[-0.5113352584372273],[0.7058077577193188],[2.180828255929023],[1.224086678267149],[-0.1476913413323515],[-0.2755125537479292],[1.4816497361146603],[0.9239951004203074],[-1.3596773228264991],[1.9437464960026893]]},"bias_o":{"rows":4,"cols":1,"data":[[1.181265212845768],[2.4649882081281316],[-1.6462445738043534],[0.40295945196217864]]},"learning_rate":0.1,"activation_function":{}},"history":{"rock":[],"paper":[],"scissor":[]},"choice":"paper","choice_code":1,"choice_history":["paper"],"choice_code_history":[1]},{"id":"lywklypttbzq995v44q","r":20,"highlight":false,"position":{"isPInst":true,"x":58.80544477238104,"y":59.04866340182695,"z":0},"velocity":{"isPInst":true,"x":0.11234959570962544,"y":0.4228815585746797,"z":0},"score":0,"prey_score":0,"fitness":0,"brain":{"input_nodes":6,"hidden_nodes":10,"output_nodes":4,"weights_ih":{"rows":10,"cols":6,"data":[[-0.5334929724478384,-1.0263824886453639,1.2963744627388216,1.3991191282969035,0.6345002646200432,-0.6937858074451126],[1.300724529625448,0.0984082854756605,-0.493435195274693,0.6023675535866713,-1.8921804598387395,1.2751383644487846],[0.08629859352146231,-1.2217015818575485,0.065957264655433,-0.46249949865156276,0.6638231402125785,-0.9804790566115066],[0.5524412424180292,1.2318064830033055,0.7120022710574999,-1.9995480897962918,0.14752799371660003,-1.060815572499802],[-1.0483825840273255,-0.8395090553708566,0.08500822286570489,-0.887110893773191,0.7494831318284374,0.1230815019796504],[2.74167587666593,-0.5124052423944863,1.0868495094613462,-0.9163317169682378,-2.1617795825186237,0.5393648401229686],[-0.35411300048535965,1.2016588883005896,0.0347705443269582,0.1207259035078449,0.666510979846219,0.8546857436892595],[0.6891925209539514,1.4230762293845878,0.3621815356606449,-0.6165559202918125,0.5167785323013674,0.3245540008966667],[1.1642546240731104,-0.22499255022865294,-0.012906006200092579,-0.809152604635083,-1.1879201195696991,1.5740995115069725],[1.7565769746037476,0.5797200509134247,1.4812387394591702,0.4356405784503363,1.1934955605930038,0.05284425812031434]]},"weights_ho":{"rows":4,"cols":10,"data":[[-0.5367970491076155,-1.0183834967732275,0.11914228379103486,-0.19096633409966543,2.0434933248704743,-2.4879492430863004,1.080361734627881,-1.5273779031043833,-0.8578901308673472,-0.36518157049498856],[-0.6929452924565564,1.2484882007809652,-0.22666667642921,-1.1722855696306034,1.1965628455870279,1.0640721089026297,-0.14246594771481025,1.8133368471226594,-0.5014451099185413,2.681139688686461],[-1.3867951409962953,-0.05880315216869919,2.822430462105128,1.9041068170214082,0.11643997224998598,-1.9711157238628547,0.7607440980958198,-0.707658657896503,0.7044701791653348,-1.8569910707131105],[-1.8633534302805996,0.6779425039818969,0.3020434058398502,2.473254301831436,1.2733341721159739,-0.02998833063675256,-0.5019647242905816,-1.2489158104451608,0.8662610018063379,0.3971127655282791]]},"bias_h":{"rows":10,"cols":1,"data":[[0.9503984682364459],[-0.1959806156396671],[0.8294888722715974],[-0.5383573832092992],[0.20840920182772216],[0.1105008678198332],[1.2455749057309724],[-0.30098871119268733],[-0.9276882043235921],[0.01906584771785469]]},"bias_o":{"rows":4,"cols":1,"data":[[0.7447725495365219],[0.8825650349393068],[3.702170103400478],[-0.12769535402985377]]},"learning_rate":0.1,"activation_function":{}},"history":{"rock":[],"paper":[],"scissor":[]},"choice":"scissor","choice_code":2,"choice_history":["scissor"],"choice_code_history":[2]},{"id":"lywklypts8vzsh4puk","r":20,"highlight":false,"position":{"isPInst":true,"x":163.54486648630967,"y":37.449771302497126,"z":0},"velocity":{"isPInst":true,"x":0.3016793253741401,"y":0.3672916721005173,"z":0},"score":0,"prey_score":0,"fitness":0,"brain":{"input_nodes":6,"hidden_nodes":10,"output_nodes":4,"weights_ih":{"rows":10,"cols":6,"data":[[-0.887037138713267,-1.4926853462633973,1.1567519109823734,1.3991191282969035,0.9616192231643972,-0.6937858074451126],[1.300724529625448,0.0984082854756605,-0.527703644158256,1.034392400624602,-1.8921804598387395,0.07866869065875925],[0.15144315211153314,-1.2217015818575485,-0.24607991788489353,-0.2182990913424402,1.5909035878578481,-1.9879362164706131],[0.5524412424180292,0.806735097372526,1.5921385658571447,-1.9995480897962918,0.11106487144707736,-1.390658719077078],[-1.0483825840273255,-0.8395090553708566,1.1371354626502443,-0.6852228914636318,0.7494831318284374,0.22566511640068926],[2.358432437574412,-0.5124052423944863,1.0868495094613462,-0.9163317169682378,-2.1617795825186237,0.5393648401229686],[-0.35411300048535965,0.49501728420249014,-0.28954122183561926,0.4104532879016966,0.675179670842053,1.7643931503128103],[0.6891925209539514,1.4230762293845878,0.3621815356606449,0.29571076847654004,-0.26573738530605295,0.3245540008966667],[0.4862223637462866,0.4443792405266083,0.31358216956464946,-0.809152604635083,-1.1879201195696991,2.0097781237320147],[1.7565769746037476,-0.5495503231749054,1.7719240657354323,0.4398701373784268,1.1934955605930038,-0.5891680472979317]]},"weights_ho":{"rows":4,"cols":10,"data":[[-0.13653092294119823,-0.7954233209320201,0.11914228379103486,-0.19096633409966543,2.145677573233638,-2.4879492430863004,1.080361734627881,-1.5273779031043833,-0.8578901308673472,-0.8883332237267577],[-1.2960464913438008,1.5750024790936892,-0.22666667642921,-0.6232232979172716,1.3238582405873927,1.0640721089026297,-0.14246594771481025,1.8924471241328145,-0.5014451099185413,2.7857507584800234],[-1.3867951409962953,-0.05880315216869919,2.822430462105128,1.926466674805301,0.11643997224998598,-1.9711157238628547,0.7607440980958198,-0.707658657896503,0.7044701791653348,-2.1872320556833618],[-1.6273718685034275,1.3205557615091759,0.3020434058398502,1.8377063541026049,1.2733341721159739,-0.02998833063675256,-0.5019647242905816,-1.2813178776572463,0.8662610018063379,-0.1606132077476718]]},"bias_h":{"rows":10,"cols":1,"data":[[0.9503984682364459],[-0.6229344242408664],[0.8294888722715974],[-0.04271857668920853],[0.20840920182772216],[0.1105008678198332],[1.2455749057309724],[-1.683949699964844],[-0.4948797689913784],[0.9499048247234063]]},"bias_o":{"rows":4,"cols":1,"data":[[0.7447725495365219],[0.8825650349393068],[3.004741820821846],[-0.6192067110582957]]},"learning_rate":0.1,"activation_function":{}},"history":{"rock":[],"paper":[],"scissor":[]},"choice":"scissor","choice_code":2,"choice_history":["scissor"],"choice_code_history":[2]}]
