[{"id":"lyy1qqn3vsaaol343xk","r":20,"highlight":false,"position":{"isPInst":true,"x":64.39689781842479,"y":35.9237011724657,"z":0},"velocity":{"isPInst":true,"x":0.12375889945714946,"y":-0.1886750226471099,"z":0},"score":0,"prey_score":0,"fitness":0,"brain":{"input_nodes":6,"hidden_nodes":10,"output_nodes":4,"weights_ih":{"rows":10,"cols":6,"data":[[8.973801744754716,5.726750088758468,5.182290340361854,-1.6593412410852377,1.3354890834703954,2.116096195608657],[-3.8508839903865977,-8.940332254525702,2.2174503992566503,3.790755855825524,-3.1979138354953847,7.587651403941128],[-1.0342794698643698,4.797362213033828,3.0929716905139517,2.113192766297173,-7.311848047305002,-5.621485168656361],[0.975065084930036,1.5805666019937084,-5.779702091657472,-2.8066388932864053,-0.8574280815998253,8.461629129133462],[0.8047027623413983,4.785450617644206,3.508849616760856,-7.767788266530245,9.331565262190018,9.133104563430264],[12.695812226671181,7.183192605135142,2.3442800800977794,-0.20272073431387355,-6.066864150136008,10.316650893248829],[4.230204681059233,1.599966117407429,-7.555971436926521,5.809335003206925,-6.646836771242292,4.078180151381616],[-9.827205474934166,2.4808395275290325,-0.8323724633390397,5.781288122461836,-1.3750912882076092,-0.3095699255190415],[-1.5582154666915276,-3.179829323709714,-2.768985479480658,6.9755973421689275,-10.364987726407575,-3.7298834177287055],[3.6115574997686233,1.1460866461720711,-7.629267420174024,1.6886215722669027,-2.8878815720053552,-2.0655436999023165]]},"weights_ho":{"rows":4,"cols":10,"data":[[-1.7268437403299626,-3.044505535660578,-1.7546740084087136,-0.9475806303459811,-11.637440874511023,6.226134281111657,-4.821741554956314,-3.4557375340235925,-0.6142322984057782,-4.633765050228945],[2.01122365816524,-8.325895065585405,-15.212865190370302,4.138785621675996,3.638337486848649,2.760351560489409,-2.732917252630598,-5.4003739207263814,-5.5610955560974205,-9.572933603517516],[0.44772123501349675,7.43225128001816,1.9367502211909056,-10.539883236250088,-2.116083006546045,7.1318899922659975,6.151963639727304,-11.044339458669373,-7.397648278940703,1.1517615047946195],[-1.472507290804824,-8.790928724828492,-3.697398755392451,1.2328689719995465,-12.470783048240168,-6.6535018091250215,0.9571196550074745,2.0018729788063188,6.087871058838024,7.650781528216501]]},"bias_h":{"rows":10,"cols":1,"data":[[-5.787850021968382],[0.10199907267984099],[-0.6058707780953188],[-0.5422323911931732],[-0.1170059172803706],[-15.132793569526713],[7.435855902744743],[3.3274613735923197],[-6.001147102394741],[2.3678366738509693]]},"bias_o":{"rows":4,"cols":1,"data":[[4.28228290439618],[-9.562036386689286],[0.22333995482331842],[14.818629529887087]]},"learning_rate":0.1,"activation_function":{}},"history":{"rock":[],"paper":[],"scissor":[]},"choice":"rock","choice_code":0,"choice_history":["rock"],"choice_code_history":[0]},{"id":"lyy1qqn3vwbuwcrp1x","r":20,"highlight":false,"position":{"isPInst":true,"x":184.54073263219797,"y":55.39624713432544,"z":0},"velocity":{"isPInst":true,"x":0.18092639784814568,"y":0.21945237585813437,"z":0},"score":0,"prey_score":0,"fitness":0,"brain":{"input_nodes":6,"hidden_nodes":10,"output_nodes":4,"weights_ih":{"rows":10,"cols":6,"data":[[8.812564633717491,5.726750088758468,4.8615246475389515,-2.6710285662201563,0.9312437368552776,1.8654893138168414],[-3.733894621999934,-8.940332254525702,2.7973966044561873,3.790755855825524,-4.362825856576661,8.86300935095397],[-1.7026399986668135,3.91422753513838,2.964311202180692,2.113192766297173,-6.873955934517205,-6.212537079486719],[0.975065084930036,1.6438752231105767,-5.675761626804087,-2.441440454077804,-1.1500393458432445,8.241421174318896],[0.584038348822149,5.468032535691364,2.716366475467683,-7.767788266530245,9.331565262190018,9.133104563430264],[12.695812226671181,7.183192605135142,0.8303502293038685,-0.20272073431387355,-7.105738246096514,10.21774005992075],[4.13867540166178,1.1329112319284014,-7.555971436926521,6.313407871741152,-6.1148574734498515,4.078180151381616],[-9.618606222540729,2.4808395275290325,-0.8437267343952457,5.552199583601483,-0.965860278438803,0.14907244043085244],[-1.0195417934684967,-2.5794862124994347,-3.009269047369775,6.136946263426248,-10.852026843977653,-3.7298834177287055],[2.95891220035034,1.1460866461720711,-8.169660363539615,1.5362700590253127,-2.8878815720053552,-2.102750789532942]]},"weights_ho":{"rows":4,"cols":10,"data":[[-1.3616717096666577,-3.044505535660578,-1.7546740084087136,-0.9475806303459811,-11.67991371325735,6.299460376182233,-4.976391115686973,-3.1138516729435577,-0.40333319548777924,-4.633765050228945],[1.679843558756634,-8.325895065585405,-15.212865190370302,4.138785621675996,3.638337486848649,2.760351560489409,-2.732917252630598,-5.4545231906593745,-6.0921778985020625,-10.202523998581691],[-0.1638371246590779,6.950167949410604,1.9367502211909056,-10.539883236250088,-2.116083006546045,6.769550356779748,6.114313066487063,-12.0983691836141,-7.397648278940703,1.1517615047946195],[-1.472507290804824,-8.513296227314088,-3.2003343825572994,1.2328689719995465,-12.470783048240168,-6.250180777584605,0.9571196550074745,2.0018729788063188,5.696503865346777,7.650781528216501]]},"bias_h":{"rows":10,"cols":1,"data":[[-5.555967909253639],[1.3712898432258378],[1.2206211196751684],[-0.5422323911931732],[-0.47885700854763646],[-15.132793569526713],[7.823917746305819],[3.2130146373493567],[-5.821971962017463],[2.43561425124103]]},"bias_o":{"rows":4,"cols":1,"data":[[4.28228290439618],[-9.559747040416378],[1.467903885478061],[14.818629529887087]]},"learning_rate":0.1,"activation_function":{}},"history":{"rock":[],"paper":[],"scissor":[]},"choice":"rock","choice_code":0,"choice_history":["rock"],"choice_code_history":[0]},{"id":"lyy1qqn3ciwb2q76rwj","r":20,"highlight":false,"position":{"isPInst":true,"x":46.53893495051196,"y":31.06719440306247,"z":0},"velocity":{"isPInst":true,"x":-0.32237113225666447,"y":0.07229625010906049,"z":0},"score":0,"prey_score":0,"fitness":0,"brain":{"input_nodes":6,"hidden_nodes":10,"output_nodes":4,"weights_ih":{"rows":10,"cols":6,"data":[[0.90298229794997,6.144680930080072,-14.296676552997992,-9.042580301844058,0.8574747859435758,-6.2389627647439045],[-0.5020807465932695,5.289716118523315,-3.9624054946790066,9.533207634439835,-1.6970048533371735,6.038617505598266],[6.94091662581617,0.9077240332512674,-7.93572368934038,-6.845827611771103,4.734579267564426,-1.0071319096777362],[-6.777681491661454,3.5519833882222973,4.386275371038599,-8.991694950224899,1.3875872994132954,8.503308858311893],[2.932909641057593,1.199246647309609,6.3764169333175085,-4.434801310172222,-20.53887202247141,1.7865228510584257],[-3.9028142135133863,4.64232531997274,-0.9349399507031786,-10.294482729017606,-1.4770684100132554,0.8619793570723114],[1.7197130407328989,-1.017317611344028,-6.279726451261511,-3.776540089987484,6.841195338884159,1.1488237894991982],[-4.747334568977803,-0.6067972223077158,5.483749347805954,7.910464631730349,0.303733013835015,-3.8195811582031647],[-3.1445903570342324,-8.147177249399205,-0.21452681191730072,8.466552466035418,7.173596086324566,-1.6070644427308962],[5.371970104649132,2.6400517955994305,2.8938239333229996,6.72871096552925,5.667387599225488,-5.686351710128564]]},"weights_ho":{"rows":4,"cols":10,"data":[[-5.686073573321208,-0.6499380763940962,4.575813490963937,0.9274236431306282,4.498646525468844,0.4126788709672359,0.37800155506739014,8.18023493484659,5.423895203034011,0.5408188918897032],[8.29508754451642,-0.5996993761319616,-8.004283747518473,-0.2613954644384147,9.904827959891138,-5.027939988774692,1.1127433721673183,-4.743337998928291,6.024060316428282,-3.43929053461609],[5.520828505303785,1.2296165299735873,-3.299375651018156,10.51511583314181,0.8895069360108205,-9.186801406724706,-4.674210363220952,9.747232710667827,0.17282524256105025,-5.013799761710837],[2.530058230751001,-8.70642008482181,6.313524699715908,-4.492144914830636,-1.1884022266656613,1.2111347128540972,3.1188323339066977,-19.82362183821979,2.6465054302373248,-8.119785819087015]]},"bias_h":{"rows":10,"cols":1,"data":[[-7.483488607104342],[2.6651582827769063],[-0.535739063547322],[0.31495084736331],[-4.554864916274783],[-8.143709474491205],[-3.8137046405140738],[9.736413900020525],[-1.356248024946196],[-0.20402866904558659]]},"bias_o":{"rows":4,"cols":1,"data":[[4.466172877665616],[9.984465044210738],[-5.9447343314220635],[-0.35153296620480656]]},"learning_rate":0.1,"activation_function":{}},"history":{"rock":[],"paper":[],"scissor":[]},"choice":"paper","choice_code":1,"choice_history":["paper"],"choice_code_history":[1]},{"id":"lyy1qqn3jg41i7rfyyp","r":20,"highlight":false,"position":{"isPInst":true,"x":214.20402997569707,"y":48.00836618299401,"z":0},"velocity":{"isPInst":true,"x":-0.050765131774991534,"y":0.09522478336817564,"z":0},"score":0,"prey_score":0,"fitness":0,"brain":{"input_nodes":6,"hidden_nodes":10,"output_nodes":4,"weights_ih":{"rows":10,"cols":6,"data":[[0.90298229794997,6.833594566581861,-14.296676552997992,-9.042580301844058,0.8574747859435758,-6.2389627647439045],[-0.5020807465932695,5.289716118523315,-3.9624054946790066,9.013283664699602,-1.6970048533371735,6.038617505598266],[6.94091662581617,1.7393785197451523,-7.93572368934038,-6.845827611771103,4.734579267564426,-1.0071319096777362],[-6.777681491661454,3.5519833882222973,4.22498420877768,-9.102410894881004,1.3875872994132954,8.503308858311893],[2.932909641057593,1.199246647309609,6.3764169333175085,-5.130715446256831,-20.53887202247141,1.7865228510584257],[-3.9028142135133863,4.64232531997274,-0.9349399507031786,-9.391052783574509,-1.4770684100132554,-0.27572026940117034],[1.7197130407328989,-1.017317611344028,-6.279726451261511,-3.776540089987484,6.841195338884159,1.1488237894991982],[-4.747334568977803,-0.6067972223077158,5.483749347805954,7.910464631730349,0.303733013835015,-3.8195811582031647],[-3.1445903570342324,-8.147177249399205,-0.21452681191730072,8.466552466035418,7.173596086324566,-1.6070644427308962],[5.247757030264172,2.8507145765999846,2.8938239333229996,6.72871096552925,5.0756595258100905,-5.686351710128564]]},"weights_ho":{"rows":4,"cols":10,"data":[[-5.686073573321208,-0.6499380763940962,4.575813490963937,0.9274236431306282,4.498646525468844,0.5675954871365134,0.37800155506739014,8.18023493484659,5.423895203034011,0.5408188918897032],[8.29508754451642,-0.5996993761319616,-8.004283747518473,-0.2613954644384147,9.904827959891138,-4.958278364737945,1.1127433721673183,-4.217518236733589,6.024060316428282,-3.43929053461609],[5.646068449040318,1.2296165299735873,-3.299375651018156,10.51511583314181,0.8895069360108205,-8.912418333930205,-4.674210363220952,9.747232710667827,0.17282524256105025,-5.013799761710837],[2.530058230751001,-8.70642008482181,5.245957169095781,-4.492144914830636,-1.5893054942910099,1.5758340062470697,3.1188323339066977,-19.82362183821979,2.6465054302373248,-8.119785819087015]]},"bias_h":{"rows":10,"cols":1,"data":[[-7.483488607104342],[2.6651582827769063],[-0.535739063547322],[0.31495084736331],[-4.319120689396593],[-8.143709474491205],[-3.8137046405140738],[9.736413900020525],[-1.356248024946196],[-0.20402866904558659]]},"bias_o":{"rows":4,"cols":1,"data":[[4.466172877665616],[9.984465044210738],[-5.9447343314220635],[-0.35153296620480656]]},"learning_rate":0.1,"activation_function":{}},"history":{"rock":[],"paper":[],"scissor":[]},"choice":"paper","choice_code":1,"choice_history":["paper"],"choice_code_history":[1]},{"id":"lyy1qqn3lurb26yae1i","r":20,"highlight":false,"position":{"isPInst":true,"x":79.36483044297118,"y":54.42362563603876,"z":0},"velocity":{"isPInst":true,"x":0.02153399956953761,"y":0.10240476168082546,"z":0},"score":0,"prey_score":0,"fitness":0,"brain":{"input_nodes":6,"hidden_nodes":10,"output_nodes":4,"weights_ih":{"rows":10,"cols":6,"data":[[-2.9895417053851,2.0696713064898344,-0.3657478411031214,-1.0391594529439798,-8.617359975121952,7.944221347802465],[-3.0837746236914225,3.7746021223096315,2.494115591317575,-7.968772325971285,8.080434222047334,6.3020496025707455],[2.979282074399248,-6.782023925594086,1.7357497601955105,-3.2436056593884293,-6.8718485746556635,8.032750976927835],[-2.544798052245356,-4.91703796020379,-2.806863017266237,8.459583402112061,0.07853005253724207,-7.077726625281761],[2.1076513350927337,-1.6278304712492029,-5.089003985966838,3.176144639715785,-5.188399352837701,0.5263203848100544],[2.151849326625068,-10.731359126082074,-1.6698536802625334,-9.685370552015558,1.841873792009853,-5.843294510426929],[-0.3610711038029927,1.719887098104371,-3.8510809850374956,-3.5671721709272473,0.15247734100692953,-6.353456675661308],[5.459750572132267,-1.728908450061333,8.694172512194037,6.595838181487007,-0.8166185757781231,0.9364730475251857],[-6.676979045251167,-1.3623412926253513,5.134414853838955,-4.080976079555872,0.4686598959388588,2.4777805527632024],[8.240280882376908,-0.4511294413750434,-0.6972591206563632,-5.539118380201515,-0.5518255732535672,-6.648200578553036]]},"weights_ho":{"rows":4,"cols":10,"data":[[-2.0020136394626578,6.415933124126493,4.7349397645564775,-6.376934988953962,3.565443233832216,3.913636990144602,-4.774731411225321,-5.521374562298016,-7.124282218059378,-5.7538425754436835],[3.1562616038090874,-2.7142206225001146,-6.783388950685472,-0.8318000074064225,-3.110775529595157,3.2074628307359303,0.7894617199041452,4.8099334222765915,-2.545536983547314,2.42680310860422],[-6.800048959465127,-2.2636091376526,-0.4800032583890973,1.9741074598973132,-4.556216308861546,-3.3849466930906162,-4.001797265805687,-4.076710645578855,2.5652710606087563,4.107768008645936],[-3.7463099068151133,-1.5883927376767188,-5.6284420082289905,5.586773178143751,12.909314201190025,-1.7975863885300902,-10.674217053833713,-1.1543529415252725,-0.6922350178860274,-3.2281967070449893]]},"bias_h":{"rows":10,"cols":1,"data":[[7.167038868822965],[-2.2785699218751025],[-8.642785939403147],[3.4444089163737064],[1.2594089488269455],[-4.245321554750433],[-1.0245725418101492],[9.042938908275651],[-7.77295218600002],[-6.502111343172485]]},"bias_o":{"rows":4,"cols":1,"data":[[0.5870842835384521],[-5.600292762746652],[-5.729254404661536],[1.1649916566869252]]},"learning_rate":0.1,"activation_function":{}},"history":{"rock":[],"paper":[],"scissor":[]},"choice":"scissor","choice_code":2,"choice_history":["scissor"],"choice_code_history":[2]},{"id":"lyy1qqn3p9ttg6lmlgc","r":20,"highlight":false,"position":{"isPInst":true,"x":183.00356769748564,"y":51.445135764846796,"z":0},"velocity":{"isPInst":true,"x":-0.06295108462369425,"y":0.4388880934584245,"z":0},"score":0,"prey_score":0,"fitness":0,"brain":{"input_nodes":6,"hidden_nodes":10,"output_nodes":4,"weights_ih":{"rows":10,"cols":6,"data":[[-2.9895417053851,2.0696713064898344,-0.3657478411031214,-1.0391594529439798,-8.617359975121952,7.944221347802465],[-3.0837746236914225,3.7746021223096315,2.494115591317575,-8.701135977908372,8.080434222047334,6.3020496025707455],[2.979282074399248,-6.4780397954257225,1.7357497601955105,-3.2436056593884293,-6.393157545119084,8.032750976927835],[-2.544798052245356,-4.5907892311012235,-2.806863017266237,8.459583402112061,0.07853005253724207,-7.077726625281761],[2.1076513350927337,-1.6278304712492029,-5.089003985966838,3.5295840256974933,-5.188399352837701,0.5263203848100544],[2.151849326625068,-10.731359126082074,-1.6698536802625334,-9.686649325729267,1.841873792009853,-5.843294510426929],[-0.3610711038029927,1.719887098104371,-3.8510809850374956,-3.5671721709272473,0.15247734100692953,-6.353456675661308],[5.777332032035365,-1.444249226739085,8.694172512194037,6.595838181487007,-0.4646448398542766,0.9364730475251857],[-6.676979045251167,-1.8135207915688047,5.134414853838955,-4.080976079555872,0.4686598959388588,2.4777805527632024],[8.240280882376908,0.016498322611375627,-0.8320040469583326,-5.539118380201515,-0.5518255732535672,-6.648200578553036]]},"weights_ho":{"rows":4,"cols":10,"data":[[-2.0020136394626578,6.415933124126493,4.2835539776099765,-6.376934988953962,3.565443233832216,4.457180951883219,-4.774731411225321,-5.521374562298016,-6.5555502561905135,-5.7538425754436835],[3.1562616038090874,-2.7142206225001146,-6.783388950685472,-0.8318000074064225,-2.8099352077709865,3.2074628307359303,0.7894617199041452,4.8099334222765915,-2.545536983547314,2.42680310860422],[-6.800048959465127,-2.5565036348967105,0.16447477716542425,1.9741074598973132,-4.556216308861546,-3.3849466930906162,-4.001797265805687,-4.076710645578855,2.5652710606087563,5.321679473627408],[-3.7463099068151133,-1.5883927376767188,-5.6284420082289905,5.586773178143751,12.909314201190025,-1.7975863885300902,-10.637997404367283,-1.1543529415252725,-0.6922350178860274,-3.2281967070449893]]},"bias_h":{"rows":10,"cols":1,"data":[[7.167038868822965],[-2.2785699218751025],[-8.642785939403147],[3.3216923926630004],[1.5297866429487041],[-4.245321554750433],[-1.0245725418101492],[9.042938908275651],[-7.77295218600002],[-6.502111343172485]]},"bias_o":{"rows":4,"cols":1,"data":[[1.065345599260188],[-5.600292762746652],[-5.729254404661536],[1.1649916566869252]]},"learning_rate":0.1,"activation_function":{}},"history":{"rock":[],"paper":[],"scissor":[]},"choice":"scissor","choice_code":2,"choice_history":["scissor"],"choice_code_history":[2]}]
