[{"id":"lywkkvdtmqkbyn8d5sj","r":20,"highlight":false,"position":{"isPInst":true,"x":168.97866989671456,"y":20,"z":0},"velocity":{"isPInst":true,"x":0.328728243331311,"y":-0.1508451490870013,"z":0},"score":0,"prey_score":0,"fitness":0,"brain":{"input_nodes":6,"hidden_nodes":10,"output_nodes":4,"weights_ih":{"rows":10,"cols":6,"data":[[-0.28786276966032354,-0.6990408935930295,0.45818979931156667,-0.016674229489110834,-0.6818771652499191,0.14428920302679638],[-0.6143438137560115,-0.8435194573908378,0.47169466523874365,-0.530796308442254,-0.8764798712624144,0.47009576850309776],[-0.48884512246052036,0.553752413105471,0.22965647319132731,-0.5513197215938135,0.9710968033737686,0.33205960514800303],[0.20019909052426854,-0.7279460374225857,0.6171876084514576,-0.06340311966108303,0.9435150351773814,0.49948928751162125],[0.34443204723494536,-0.725445526541145,0.5323575454551881,0.2797041233768738,-0.7237262041397607,0.38853752571317157],[-1.5041115323429979,-0.48828979779691295,-1.6242601000157049,2.0057237411536386,-0.14030919001807485,-0.5475898710101051],[0.7653711942162258,0.4464180868306474,0.9165676492330377,-0.14627858995109477,0.6334523529291274,1.0547067832872281],[0.0020939606795126187,0.48575961114630317,0.423171364020842,0.2718051279276277,0.3651695071263496,0.7467008820023615],[-0.6199137105186414,-0.8773416173819322,0.14960588943753064,-0.01492474537380123,0.44623314488488885,-1.1131044920673336],[0.9939670705533095,1.0817589446443991,-0.6527771041897883,0.5777719835812342,-1.30764483130267,-0.2969415013490678]]},"weights_ho":{"rows":4,"cols":10,"data":[[1.0386756682463725,0.394935259127288,0.7186778472473107,-0.21460679620649126,-1.6545043197935054,1.0934048946672876,0.0408945071601442,0.78131823451559,-0.9974201356087107,-1.0032564895096578],[-0.5700480394723053,-0.11814185186375814,-0.0014625558996730348,0.4537169132777845,-0.5327558958253871,-0.4835718405694856,-0.3713663997433628,2.1974986460154438,-0.37273980134783935,0.5177917888354021],[0.032293340205742815,-0.7851983632753097,-1.0813488932339486,1.279506737244567,-1.0659598247094155,-0.9557641403042494,0.1954663841575767,-0.7198715931688804,0.7677441496373001,0.6524333374735022],[-0.1865375799447208,1.1443753947744586,-0.3076000150442601,0.41590527487800877,0.16345796524381373,1.1042152878662177,-0.04207137488122603,0.47106718952509813,0.4130140556192944,0.00156400830663328]]},"bias_h":{"rows":10,"cols":1,"data":[[-0.4347080269947674],[-1.1554238911317232],[-0.6307710491060501],[0.5729336647581111],[1.0738196749584725],[0.025286704231952672],[0.5915908387415537],[-0.5262451677317981],[-1.1703506347745354],[-0.9283110323358054]]},"bias_o":{"rows":4,"cols":1,"data":[[-1.0370176331385945],[0.1313935675267473],[-0.4228710282518555],[0.213809090755257]]},"learning_rate":0.1,"activation_function":{}},"history":{"rock":[],"paper":[],"scissor":[]},"choice":"rock","choice_code":0,"choice_history":["rock"],"choice_code_history":[0]},{"id":"lywkkvdtm0b0lpl09","r":20,"highlight":false,"position":{"isPInst":true,"x":89.74788158604224,"y":40.06711372856858,"z":0},"velocity":{"isPInst":true,"x":-0.3201048260102759,"y":0.40880290892490745,"z":0},"score":0,"prey_score":0,"fitness":0,"brain":{"input_nodes":6,"hidden_nodes":10,"output_nodes":4,"weights_ih":{"rows":10,"cols":6,"data":[[-0.28786276966032354,-0.6990408935930295,0.45818979931156667,-0.016674229489110834,-0.6818771652499191,0.14428920302679638],[-0.6143438137560115,-0.8052324278960966,0.47169466523874365,-0.530796308442254,-0.8764798712624144,0.47009576850309776],[-0.48884512246052036,0.5967512588385113,0.22965647319132731,-1.3051922709969594,0.9710968033737686,0.33205960514800303],[0.20019909052426854,-0.7279460374225857,0.6171876084514576,0.33557540844411005,0.9435150351773814,0.49948928751162125],[-0.8782391298435166,-0.725445526541145,0.5323575454551881,0.2797041233768738,-0.7237262041397607,0.5802564302690768],[-1.2527808922635923,-0.48828979779691295,-1.6242601000157049,2.0057237411536386,-0.7993980453100086,-1.3264989813823593],[0.9090903190141806,0.4464180868306474,1.2810969089818722,-0.14627858995109477,0.6334523529291274,1.0547067832872281],[-0.40303127250621007,0.48575961114630317,0.423171364020842,0.2718051279276277,0.3651695071263496,0.7467008820023615],[-0.043584329899526875,-0.8773416173819322,0.14960588943753064,-0.01492474537380123,0.44623314488488885,-1.1131044920673336],[0.9939670705533095,0.36757976370887924,-0.6171147912978082,0.5777719835812342,-1.30764483130267,-0.5074465788594817]]},"weights_ho":{"rows":4,"cols":10,"data":[[-0.07658169252199915,0.394935259127288,0.5005412216000114,-0.21460679620649126,-0.9505313311135422,1.0934048946672876,0.0408945071601442,0.78131823451559,-0.7809965799959393,-1.0032564895096578],[-0.5700480394723053,-0.11814185186375814,-0.0014625558996730348,0.4537169132777845,-0.5327558958253871,-0.7198626353351274,-0.3713663997433628,1.3834254670999722,-0.37273980134783935,0.5177917888354021],[0.032293340205742815,-1.3712576492531197,-1.0813488932339486,1.4317441128769142,-1.0659598247094155,-0.9557641403042494,0.1954663841575767,-0.48396570758197566,-0.2911255944031459,0.9454031797061302],[-0.1865375799447208,0.8103500402052948,-0.3076000150442601,0.41590527487800877,0.16345796524381373,0.2989729887360001,-0.04207137488122603,0.6635080064510619,0.4130140556192944,0.00156400830663328]]},"bias_h":{"rows":10,"cols":1,"data":[[-0.4347080269947674],[-0.873613394544797],[-0.6307710491060501],[0.5729336647581111],[1.0738196749584725],[0.025286704231952672],[0.5915908387415537],[-0.5262451677317981],[-1.1703506347745354],[-0.9283110323358054]]},"bias_o":{"rows":4,"cols":1,"data":[[-1.7041821256921674],[0.1313935675267473],[-0.4228710282518555],[0.213809090755257]]},"learning_rate":0.1,"activation_function":{}},"history":{"rock":[],"paper":[],"scissor":[]},"choice":"rock","choice_code":0,"choice_history":["rock"],"choice_code_history":[0]},{"id":"lywkkvduik5x18upv5f","r":20,"highlight":false,"position":{"isPInst":true,"x":21.048511603585318,"y":20.83885107980151,"z":0},"velocity":{"isPInst":true,"x":-0.4557105525075362,"y":0.2399008524503614,"z":0},"score":0,"prey_score":0,"fitness":0,"brain":{"input_nodes":6,"hidden_nodes":10,"output_nodes":4,"weights_ih":{"rows":10,"cols":6,"data":[[0.7030354300049466,0.7239432802261501,0.7179513216298192,-0.3575798008702178,0.45873735066702404,0.8684554519927283],[-1.0910585186201054,-1.3937671136220042,1.654034162378089,0.8088250352278146,0.664089499349994,-0.056760904859749606],[-0.7911194049913288,1.301737629401439,-0.2241800057180541,0.7831786518025106,0.13464259269908407,1.4144157433981515],[1.0449351990181703,-0.0967770938074417,1.4546302749457865,0.4600112173981684,-0.8973544004550661,0.29863941590997456],[-0.07711974760338644,-0.03751373893596138,0.7274716994709866,0.7287971516373369,0.6220015250117084,0.6710021421010657],[0.9140672613653882,-0.7973892333388406,-1.614031915684812,0.03201922327163842,-0.46420162577436486,-0.7262980870868563],[0.5556208566555983,-0.23150803829962285,-0.45762408909263474,-0.13695870052356374,1.4502527463102641,0.0920788123343716],[0.5415340243360847,0.1048424674901835,0.17807722352706887,-0.9619473434252541,0.34871216969596447,0.09167848882100671],[-1.0511360884105834,0.0006517068457750907,-0.12898816273055758,-1.2830527341665072,-0.22170479448552488,-0.45346781691995597],[0.23960797216168928,0.23912420069439666,0.04480203762334001,-0.30192475636155214,-0.9747672144809858,-0.05460748528863535]]},"weights_ho":{"rows":4,"cols":10,"data":[[0.4035317804245593,0.14753446371694157,0.04087452456716037,0.23469292982383144,0.21571693956547167,-1.0569568427553757,-1.8879460569799804,-0.47125538093871744,0.3585231507925992,0.6614176056929284],[0.2705502396777777,0.8755060217345436,-0.2481322327785503,-0.32993110645307766,0.637561010138834,-0.44987255129089876,-0.07994535359795263,-0.06094864540370426,0.6087255863227576,-1.4820462213880332],[-0.4518126392881866,1.4762853783867727,-0.10615150456004996,-0.9196985805986868,0.2205383735267854,-0.43388843649625125,-0.9126199091382792,-0.11781391264300001,-0.26037209692176105,0.046857245567177824],[1.7665790158611676,-0.07672870103517894,-0.09927799500880541,0.2092594083953907,-0.9035287458798349,1.564815593163991,-0.12616215441999,0.030023348422026253,0.5409174872586351,0.022077979387963548]]},"bias_h":{"rows":10,"cols":1,"data":[[-0.18833001298801288],[-0.004468076447051494],[0.896685186424615],[-0.8287872028559008],[-0.09933450215194473],[-0.7535505736884511],[1.3710662026323117],[0.9239951004203074],[-0.9343366776981731],[1.1531442421884837]]},"bias_o":{"rows":4,"cols":1,"data":[[0.9944749352514308],[0.5799083251919868],[-0.995101804705496],[-0.21969826228677886]]},"learning_rate":0.1,"activation_function":{}},"history":{"rock":[],"paper":[],"scissor":[]},"choice":"paper","choice_code":1,"choice_history":["paper"],"choice_code_history":[1]},{"id":"lywkkvdu6oqglm19xat","r":20,"highlight":false,"position":{"isPInst":true,"x":207.45922016196263,"y":20,"z":0},"velocity":{"isPInst":true,"x":-0.48766953685900916,"y":-0.04071243423339044,"z":0},"score":0,"prey_score":0,"fitness":0,"brain":{"input_nodes":6,"hidden_nodes":10,"output_nodes":4,"weights_ih":{"rows":10,"cols":6,"data":[[0.7030354300049466,0.8222410623160425,0.7179513216298192,-0.3575798008702178,0.45873735066702404,0.8684554519927283],[-1.2293669464835533,-1.3937671136220042,1.654034162378089,0.8088250352278146,0.664089499349994,-0.056760904859749606],[-0.7911194049913288,1.301737629401439,-0.39417292890295696,0.7831786518025106,0.13464259269908407,2.683246279582872],[1.0449351990181703,-0.0967770938074417,1.4546302749457865,0.2921852127388968,-0.8973544004550661,0.6958996352619429],[-0.07711974760338644,-0.03751373893596138,1.0993538224515684,0.7287971516373369,0.6220015250117084,0.948739656062933],[0.9140672613653882,-0.7973892333388406,-1.614031915684812,0.03201922327163842,-0.46420162577436486,-0.7262980870868563],[-0.21399190624263142,-0.23150803829962285,-0.45762408909263474,-0.13695870052356374,1.4502527463102641,0.0920788123343716],[0.1500350023943396,0.08124327539798626,0.17807722352706887,-0.9619473434252541,0.34871216969596447,0.09167848882100671],[-1.0511360884105834,-0.05133519543787113,-0.12898816273055758,-1.2830527341665072,-0.22170479448552488,-0.45346781691995597],[-0.6504438588188598,-0.013555549560608338,0.04480203762334001,-0.30192475636155214,-0.7540404528221846,-0.05460748528863535]]},"weights_ho":{"rows":4,"cols":10,"data":[[0.4035317804245593,0.14753446371694157,0.04087452456716037,0.23469292982383144,0.21571693956547167,-0.799282775399982,-1.8879460569799804,-0.5068886834186209,0.3585231507925992,0.6614176056929284],[0.2705502396777777,0.8755060217345436,-0.2481322327785503,-0.32993110645307766,0.637561010138834,-0.44987255129089876,-0.07994535359795263,-0.06094864540370426,0.6087255863227576,-1.4820462213880332],[-0.4518126392881866,1.7424891160543634,0.2578058224088554,-0.9196985805986868,0.2205383735267854,-0.7215651858520117,-0.9126199091382792,-0.11781391264300001,-0.26037209692176105,0.046857245567177824],[1.7665790158611676,-0.07672870103517894,-0.09927799500880541,0.2092594083953907,-0.9035287458798349,1.564815593163991,-0.12616215441999,0.030023348422026253,0.5409174872586351,0.022077979387963548]]},"bias_h":{"rows":10,"cols":1,"data":[[-0.18833001298801288],[-0.004468076447051494],[0.896685186424615],[-0.8287872028559008],[-0.09933450215194473],[-0.7535505736884511],[1.3710662026323117],[0.9239951004203074],[-0.9068661219773788],[1.1531442421884837]]},"bias_o":{"rows":4,"cols":1,"data":[[0.9944749352514308],[1.660064524663797],[-0.995101804705496],[-0.21969826228677886]]},"learning_rate":0.1,"activation_function":{}},"history":{"rock":[],"paper":[],"scissor":[]},"choice":"paper","choice_code":1,"choice_history":["paper"],"choice_code_history":[1]},{"id":"lywkkvduinvio55j2of","r":20,"highlight":false,"position":{"isPInst":true,"x":20,"y":22.195453854535394,"z":0},"velocity":{"isPInst":true,"x":0.28665853450017686,"y":-0.21521758791181433,"z":0},"score":0,"prey_score":0,"fitness":0,"brain":{"input_nodes":6,"hidden_nodes":10,"output_nodes":4,"weights_ih":{"rows":10,"cols":6,"data":[[0.19967846324109176,-1.3250438721134115,0.8160019841157444,1.3394036818647586,0.3050416739013569,0.1191475695410753],[0.21663559784788444,-0.7681561733794449,-0.5100622070244359,0.13275188288821232,0.04838368407583862,-1.2834558675717356],[0.15144315211153314,-0.5327928340905181,0.43087745785263815,-0.7079484910484575,-0.3582284979150277,-1.2345816557775444],[0.7780257629888713,1.2318064830033055,0.34465005020903255,-2.0154185086791125,0.5680297571932473,-0.19613780982974202],[-0.3293196031114094,-1.2843419935820766,0.2130288773122746,-0.5148698557681329,-1.4939713281538154,1.1411617536480652],[0.8103392274044217,0.3551411294066451,-0.14481153103868705,0.14780529114335383,-1.3890758387344855,0.5196119822967461],[-2.044892404655773,0.6913575642875096,0.9643594183516251,0.19193882492413955,1.4680442561274785,1.7358718998574485],[0.1923461842957696,-0.18642672209504552,0.2966695839911597,0.4010385412586952,-0.439263227558766,-0.3920233229576093],[0.5487276538450543,0.5032653986949414,-0.16403533148627375,-0.7324884090495645,1.5092533052696182,0.733602306940381],[0.1872247965309608,0.5163685224886043,-0.7032557005023434,0.2845770974756193,1.4311891735262852,0.47032159591644573]]},"weights_ho":{"rows":4,"cols":10,"data":[[-0.8015817937575863,-0.602745528303664,1.1412213728973675,-0.007354414315501857,1.5018278659950275,-1.4945430247349505,-0.3981249378740146,-0.9977443230697467,-0.1223870767319779,-0.9925411209035904],[0.2540562027609239,0.21036023070532456,-0.4594746101384577,0.39711104086370463,1.1965628455870279,-0.05338280994617417,0.8762508549972545,1.8747201530987683,-0.6079862231647709,0.09169973555878197],[-0.7268433422898415,0.4773997866269162,1.0802871087820145,0.05418364704112588,-0.09600942508601173,-1.9711157238628547,-0.08698709801606003,0.2528769771542583,-0.15934303671926192,-1.1650668776105737],[-1.0633849375088427,-1.091532891015514,0.3020434058398502,1.0322252134163001,2.180502785449992,-0.3253219771508041,-0.20758609471032408,0.08713275282846297,-0.25948634943631343,-0.3506882690204542]]},"bias_h":{"rows":10,"cols":1,"data":[[0.24850432079084445],[-1.2283874041764555],[-0.22523442757791706],[-0.18040928635759182],[0.4600821072565864],[-0.40420847963653245],[1.478113228087122],[0.14890056371476224],[-0.9276882043235921],[1.214759138250133]]},"bias_o":{"rows":4,"cols":1,"data":[[1.21756803943338],[0.060531139031856404],[0.7182505375037133],[0.4569592063062201]]},"learning_rate":0.1,"activation_function":{}},"history":{"rock":[],"paper":[],"scissor":[]},"choice":"scissor","choice_code":2,"choice_history":["scissor"],"choice_code_history":[2]},{"id":"lywkkvduccm3n92zpbd","r":20,"highlight":false,"position":{"isPInst":true,"x":130.55645482937712,"y":26.741282508747428,"z":0},"velocity":{"isPInst":true,"x":-0.1545960318037778,"y":0.035212221899153295,"z":0},"score":0,"prey_score":0,"fitness":0,"brain":{"input_nodes":6,"hidden_nodes":10,"output_nodes":4,"weights_ih":{"rows":10,"cols":6,"data":[[0.18624249863245623,-0.8873542974777575,0.8160019841157444,1.3991191282969035,0.2591878909392791,-0.5481753905117703],[0.2564776906965987,-0.7681561733794449,-0.40026438107879503,0.22925162237126084,-0.13134746056574048,-1.2834558675717356],[0.15144315211153314,-0.5327928340905181,0.43087745785263815,-0.7079484910484575,-0.30989456143613825,-1.419825527030416],[0.39102186801456806,1.2318064830033055,0.3472123042225803,-1.9995480897962918,0.4639254943527072,-0.05484892213237946],[-0.3293196031114094,-0.5070993045406494,0.3210686186368431,-0.5148698557681329,-0.8778952816463463,1.318310018004765],[1.2579594776323595,-0.362926265600666,-0.14481153103868705,0.3220744395935709,-0.9286508211515995,0.3857400128000218],[-2.044892404655773,0.6913575642875096,-0.05534551256015341,0.19193882492413955,0.9148482946609834,0.8256356355218887],[0.1923461842957696,1.3797560602490035,0.2966695839911597,-0.7218941051093294,-0.439263227558766,0.3171634600207027],[0.28606885199276005,0.40947982670330607,-0.24398108948943487,-0.7324884090495645,0.6143586412946086,1.5151153316349193],[1.204907041414688,0.5163685224886043,-0.7032557005023434,0.2845770974756193,1.1465577953121784,-0.13946555869650257]]},"weights_ho":{"rows":4,"cols":10,"data":[[-0.7570148041166932,-0.652512123743851,0.17300307441205232,0.03130372619560351,0.5843477620093274,-1.4945430247349505,-0.3981249378740146,-0.902535179365594,-0.1223870767319779,-1.1171949553410216],[-0.7998266594979457,0.21036023070532456,-0.4594746101384577,0.07088175065424396,1.1965628455870279,-0.24229596979664061,0.8762508549972545,1.537913519688186,-1.1879654029318716,0.9925022966737869],[-0.7268433422898415,0.4773997866269162,1.0802871087820145,0.862389216681656,0.15239301979976724,-1.9711157238628547,-0.19599252878454113,-0.707658657896503,0.24833034177711522,-2.233085753390862],[-1.0285174498619032,-0.9495683843771303,0.3020434058398502,1.2632681650518596,0.9528920687545493,-0.08759799742926555,-0.4795179561106146,0.1809281455247006,0.09891867809629479,-0.3506882690204542]]},"bias_h":{"rows":10,"cols":1,"data":[[0.24850432079084445],[0.10199663864269315],[0.4052307846417953],[0.28222804348163344],[-0.17948535636155716],[-0.2097451872991512],[1.4190708014793187],[0.14890056371476224],[-0.9276882043235921],[1.7332938392665151]]},"bias_o":{"rows":4,"cols":1,"data":[[-0.06503026310261462],[0.060531139031856404],[0.9208293905118705],[-0.12769535402985377]]},"learning_rate":0.1,"activation_function":{}},"history":{"rock":[],"paper":[],"scissor":[]},"choice":"scissor","choice_code":2,"choice_history":["scissor"],"choice_code_history":[2]}]
