[{"id":"lywklexommdigguort","r":20,"highlight":false,"position":{"isPInst":true,"x":32.28022409292008,"y":47.81382208217903,"z":0},"velocity":{"isPInst":true,"x":-0.2713927820549895,"y":0.12687197054335808,"z":0},"score":0,"prey_score":0,"fitness":0,"brain":{"input_nodes":6,"hidden_nodes":10,"output_nodes":4,"weights_ih":{"rows":10,"cols":6,"data":[[0.5430216721640654,-0.2140783475689748,0.45818979931156667,-0.016674229489110834,-0.07951718289475695,1.037980159191428],[-0.09985496729577636,-0.8052324278960966,0.47169466523874365,-0.530796308442254,-0.8764798712624144,0.3587704534141765],[-0.6341580160895018,1.4005128884740985,0.4490042860691652,0.3596816662463166,1.2228799054826562,0.33205960514800303],[0.9873014156198303,-0.41590047589084483,0.6171876084514576,1.5319271377353918,0.2989817635926876,0.49948928751162125],[-1.5628572158482852,-0.725445526541145,0.9139147977797705,1.8066438073895081,2.335724273398096,0.42458252402039887],[-1.4950183175481504,-0.2109438039051396,-1.6966308504798244,2.0285413085146473,1.0217006816558025,-1.3264989813823593],[1.2541543353679323,0.4464180868306474,1.300449520632907,0.4341029253813323,0.010984546886836699,0.39063554225622327],[1.0545330601407963,0.48575961114630317,-0.47732447305756887,0.2718051279276277,-0.2796874700532964,0.46743243524777545],[0.060413593985299455,-2.4060399508880517,-0.27895116629582783,-0.18232966288787106,0.44623314488488885,-0.6372626440186648],[1.4193495495277646,0.3509782927026147,-1.3586278208928366,0.5777719835812342,-1.30764483130267,-0.5170911369267323]]},"weights_ho":{"rows":4,"cols":10,"data":[[-0.07658169252199915,0.394935259127288,0.5005412216000114,-0.44317360128631145,-0.9245124189569746,1.0934048946672876,0.0408945071601442,0.28544083349643706,-0.7809965799959393,-1.0032564895096578],[-0.7256433645209746,-0.11814185186375814,1.001576835955684,0.14705034788126126,-1.2606670522823684,-1.9475364759003135,-0.49831026173784404,2.2322037165224677,-0.6042851424771527,-0.006184579319484851],[-0.2759635948369579,-1.3712576492531197,-1.5853751812046855,1.087257770711169,-1.7454459612469795,-0.20752352981375355,-0.7069120899647149,-0.48396570758197566,-0.36074232961198294,1.2004814379595998],[0.2875883502323916,1.063216633383366,-0.4882469208112256,0.5962726082991141,0.16345796524381373,-0.7667200205760489,0.37924401789030626,0.8267499311200829,-0.2809998169104929,-0.5694917266079822]]},"bias_h":{"rows":10,"cols":1,"data":[[-1.9220293085395679],[-0.6323339091925652],[-0.052288604735222566],[1.6182528596186234],[0.189576321602913],[0.7870981783428791],[0.5915908387415537],[0.5193552889236477],[-1.5836462549692485],[-0.9283110323358054]]},"bias_o":{"rows":4,"cols":1,"data":[[-1.7141697406703211],[0.04244636860502829],[-0.4228710282518555],[-0.4040951775203432]]},"learning_rate":0.1,"activation_function":{}},"history":{"rock":[],"paper":[],"scissor":[]},"choice":"rock","choice_code":0,"choice_history":["rock"],"choice_code_history":[0]},{"id":"lywklexo3jjjud2tc9h","r":20,"highlight":false,"position":{"isPInst":true,"x":66.87452925033087,"y":22.438743272395133,"z":0},"velocity":{"isPInst":true,"x":-0.3319535937449354,"y":0.02704402285009677,"z":0},"score":0,"prey_score":0,"fitness":0,"brain":{"input_nodes":6,"hidden_nodes":10,"output_nodes":4,"weights_ih":{"rows":10,"cols":6,"data":[[0.5430216721640654,-0.2140783475689748,0.45818979931156667,-0.016674229489110834,-0.6129061194456239,0.43436688358337044],[-0.09985496729577636,-0.8052324278960966,0.47169466523874365,-0.530796308442254,-0.8764798712624144,0.3587704534141765],[-0.6341580160895018,1.4005128884740985,0.4490042860691652,-0.020026051619775664,1.2228799054826562,0.33205960514800303],[0.9873014156198303,-0.41590047589084483,0.3817765966711393,1.5319271377353918,0.6981717576716779,0.12992078378983585],[-1.5628572158482852,-0.725445526541145,0.9139147977797705,1.8066438073895081,2.335724273398096,-0.2992115223188616],[-1.1124845881449754,-0.2109438039051396,-1.6966308504798244,2.0285413085146473,1.0217006816558025,-1.3264989813823593],[1.2541543353679323,0.4464180868306474,1.2112401723074155,-0.14627858995109477,0.010984546886836699,0.39063554225622327],[1.0545330601407963,0.48575961114630317,-0.47732447305756887,0.2718051279276277,-0.2796874700532964,0.9767598696836691],[0.060413593985299455,-2.4060399508880517,-0.27895116629582783,0.15598149082152296,0.44623314488488885,-0.6372626440186648],[1.4193495495277646,0.3509782927026147,-1.3586278208928366,0.5777719835812342,-1.30764483130267,-0.5074465788594817]]},"weights_ho":{"rows":4,"cols":10,"data":[[-0.07658169252199915,0.394935259127288,1.0034212008505472,-0.44317360128631145,-0.9245124189569746,1.0934048946672876,0.0408945071601442,0.28544083349643706,-0.7809965799959393,-1.0032564895096578],[-0.7256433645209746,-0.11814185186375814,1.001576835955684,0.33199517748622465,-1.2606670522823684,-1.654918844109387,-0.49831026173784404,2.2322037165224677,-0.6042851424771527,-0.006184579319484851],[-0.2759635948369579,-1.3712576492531197,-1.5853751812046855,1.087257770711169,-1.085528880657717,-0.20752352981375355,-0.7069120899647149,-0.48396570758197566,-0.36074232961198294,1.2004814379595998],[0.2875883502323916,1.063216633383366,-0.4882469208112256,0.5962726082991141,0.16345796524381373,-0.7667200205760489,0.37924401789030626,0.4577489826390773,-1.0742364843437726,-0.5694917266079822]]},"bias_h":{"rows":10,"cols":1,"data":[[-1.9220293085395679],[-0.6323339091925652],[-0.09923828996927697],[1.6182528596186234],[0.189576321602913],[0.7870981783428791],[0.5915908387415537],[0.5193552889236477],[-1.5836462549692485],[-0.9283110323358054]]},"bias_o":{"rows":4,"cols":1,"data":[[-1.7141697406703211],[0.04244636860502829],[-0.4228710282518555],[-0.4040951775203432]]},"learning_rate":0.1,"activation_function":{}},"history":{"rock":[],"paper":[],"scissor":[]},"choice":"rock","choice_code":0,"choice_history":["rock"],"choice_code_history":[0]},{"id":"lywklexpgd3wbtrddnv","r":20,"highlight":false,"position":{"isPInst":true,"x":102.77613972979053,"y":20,"z":0},"velocity":{"isPInst":true,"x":0.24344429540028756,"y":0.3519673422366094,"z":0},"score":0,"prey_score":0,"fitness":0,"brain":{"input_nodes":6,"hidden_nodes":10,"output_nodes":4,"weights_ih":{"rows":10,"cols":6,"data":[[-0.6110579742117461,0.17392977214378624,0.38674597825173085,-0.1747698002774371,0.45873735066702404,-0.8533743612222262],[-0.9907012522590495,-1.672353494398353,0.954454850844298,0.8038209126500915,1.5006865407593737,0.9192410580651239],[-1.595093932726062,0.3785171190457597,0.20974286162575895,1.3267071351711295,0.6214578808753211,2.683246279582872],[1.634813474457561,-0.0967770938074417,1.0080796295982566,0.8082877307330001,-0.5974949751479659,1.0162008383942789],[-0.9817335699079051,-0.7522061386175467,2.816574134175657,-0.02905800445564466,0.6220015250117084,0.948739656062933],[1.1163743041827654,-1.1699293663727324,-1.4792702121928158,0.03201922327163842,0.34215810435161254,-0.7262980870868563],[-0.47183655022865884,-0.19729203151527852,-0.45762408909263474,-1.3488186766511803,1.8652060260859185,-0.816085135262114],[-0.07218530492880144,0.3823233842589684,1.3035289455255152,-0.643276692825719,0.34871216969596447,0.09167848882100671],[-0.3058014582384033,-1.6817489990045809,-0.6775132333599616,-0.759742276924298,-0.22170479448552488,0.5500524965570874],[-0.14944696818319092,0.5598567435989914,0.11614864798650149,-1.0579462977357459,-0.7767815363836063,-0.3736668485427711]]},"weights_ho":{"rows":4,"cols":10,"data":[[0.4035317804245593,0.24437866998079227,0.058039459287783646,0.23469292982383144,0.9672858886879501,-0.799282775399982,-1.8879460569799804,-0.5068886834186209,0.10938785122949757,0.6614176056929284],[0.6026114024882969,1.223091390925255,0.506746683487695,-0.1734309535627685,-1.3738650663047816,-0.6674922147763418,0.4397987435874112,-0.15478953059460704,0.6087255863227576,-1.202644350314069],[-0.7280927352316489,1.7424891160543634,-0.7035712987945366,-0.7996077371263491,1.2559343699199252,-1.0685786685456413,-0.9126199091382792,-0.11781391264300001,-0.026271428869430347,0.046857245567177824],[1.7665790158611676,-0.2966041257005662,-0.3130454901993259,0.2092594083953907,-1.806848499626513,1.5706589436220302,-0.12616215441999,0.030023348422026253,2.847465955976667,-0.3375218501983147]]},"bias_h":{"rows":10,"cols":1,"data":[[-0.5113352584372273],[-0.7158806906391025],[1.79642102227213],[1.224086678267149],[-0.1476913413323515],[-0.7535505736884511],[1.6614781317214677],[0.9239951004203074],[-1.3596773228264991],[1.8914384637644635]]},"bias_o":{"rows":4,"cols":1,"data":[[0.9944749352514308],[1.8885684229104376],[-1.564051117063634],[0.40295945196217864]]},"learning_rate":0.1,"activation_function":{}},"history":{"rock":[],"paper":[],"scissor":[]},"choice":"paper","choice_code":1,"choice_history":["paper"],"choice_code_history":[1]},{"id":"lywklexp75nb0amw0nn","r":20,"highlight":false,"position":{"isPInst":true,"x":207.49619372701952,"y":20,"z":0},"velocity":{"isPInst":true,"x":0.3422690390131251,"y":-0.01025228570102965,"z":0},"score":0,"prey_score":0,"fitness":0,"brain":{"input_nodes":6,"hidden_nodes":10,"output_nodes":4,"weights_ih":{"rows":10,"cols":6,"data":[[-0.6110579742117461,0.17392977214378624,0.7179513216298192,0.09875576393298602,0.45873735066702404,0.8510763053757029],[-0.9907012522590495,-1.672353494398353,0.954454850844298,0.8038209126500915,1.5006865407593737,0.9192410580651239],[-1.595093932726062,1.0535022845973092,0.20974286162575895,1.2068614033320753,0.6214578808753211,2.683246279582872],[1.634813474457561,-0.0967770938074417,1.886759888748024,0.8082877307330001,-0.5974949751479659,1.0162008383942789],[-0.7597540742350013,-0.10026230210280404,2.3572231254127267,-0.02905800445564466,0.20035221553666693,0.948739656062933],[1.1163743041827654,-1.1699293663727324,-1.0284642429860675,0.03201922327163842,0.34215810435161254,-0.7262980870868563],[-0.47183655022865884,-0.19729203151527852,-0.45762408909263474,-0.2963792989360314,1.8652060260859185,-0.5286720427231413],[-0.14781615473550974,-0.02558817134012148,1.3035289455255152,-1.5378159914749086,0.04356442153293549,0.09167848882100671],[-0.5313564094507749,-1.6817489990045809,-0.6775132333599616,0.06728745270258196,-0.22170479448552488,-0.8266302116565527],[-0.14944696818319092,-0.2737771511412167,0.11614864798650149,-1.0579462977357459,-0.7767815363836063,-1.7070315516219665]]},"weights_ho":{"rows":4,"cols":10,"data":[[0.4035317804245593,0.24437866998079227,-0.4192740528688886,0.23469292982383144,0.3473959322435177,-0.799282775399982,-1.8879460569799804,-0.6913052000904887,0.44752675365799177,0.6614176056929284],[0.6026114024882969,1.223091390925255,0.506746683487695,-0.12062038475609929,-1.3738650663047816,-0.6674922147763418,0.4397987435874112,-0.15478953059460704,0.6087255863227576,-1.4820462213880332],[-0.7280927352316489,1.7424891160543634,-1.5265530114948598,-0.7996077371263491,1.2593309120703227,-1.0685786685456413,-0.9126199091382792,-0.11781391264300001,-0.026271428869430347,0.046857245567177824],[1.7665790158611676,-0.2966041257005662,-0.3130454901993259,0.2092594083953907,-1.806848499626513,1.5706589436220302,-0.12616215441999,0.030023348422026253,2.847465955976667,-0.3375218501983147]]},"bias_h":{"rows":10,"cols":1,"data":[[-0.5113352584372273],[-0.7158806906391025],[1.79642102227213],[1.224086678267149],[-0.5883943360620278],[-0.7535505736884511],[1.6614781317214677],[0.9239951004203074],[-1.3596773228264991],[1.8914384637644635]]},"bias_o":{"rows":4,"cols":1,"data":[[0.9944749352514308],[1.8885684229104376],[-1.564051117063634],[0.40295945196217864]]},"learning_rate":0.1,"activation_function":{}},"history":{"rock":[],"paper":[],"scissor":[]},"choice":"paper","choice_code":1,"choice_history":["paper"],"choice_code_history":[1]},{"id":"lywklexpgf197hfnzo","r":20,"highlight":false,"position":{"isPInst":true,"x":53.52979332521237,"y":20,"z":0},"velocity":{"isPInst":true,"x":0.4393567644997367,"y":-0.358810588305541,"z":0},"score":0,"prey_score":0,"fitness":0,"brain":{"input_nodes":6,"hidden_nodes":10,"output_nodes":4,"weights_ih":{"rows":10,"cols":6,"data":[[-0.14080550880265258,-0.598149282254941,1.371735161291529,1.3991191282969035,0.10151075259956796,-0.5481753905117703],[0.804020731428577,0.4379975077911818,-0.40026438107879503,1.4796997146518969,-1.8921804598387395,-0.8613883174395217],[0.15144315211153314,-1.226834402410127,0.20193771201161606,-0.12923031095214266,-1.1914955434223535,-0.8054730913363519],[0.39102186801456806,1.2318064830033055,2.114833188780071,-1.9995480897962918,0.14752799371660003,-0.919798887602531],[-0.2497800737970542,-0.4464874026199991,0.08500822286570489,-1.0813114277420335,-0.15745637014882452,0.6937508729383985],[0.8839415309287799,-0.44524251738181153,0.19867026031546475,-1.5899354938433834,-2.317361304128342,0.5393648401229686],[-1.8299813452332345,1.1958833230129637,-0.28954122183561926,0.8033154277137441,0.9148482946609834,0.9917522999211124],[0.7316807547017896,1.4230762293845878,0.6288083147941037,-0.6165559202918125,0.9251759078606481,0.41399662239170765],[1.4069574917124572,0.29512566496739406,0.43579044204023176,-0.809152604635083,-1.1879201195696991,1.106247315175076],[1.5032209722533079,-0.07433877483629914,0.290405839165366,0.2845770974756193,1.1465577953121784,-0.2373003307100528]]},"weights_ho":{"rows":4,"cols":10,"data":[[-0.7570148041166932,-0.9033889496849924,0.11914228379103486,-0.597373586447378,0.6602902425294919,-3.0898732846927897,1.129605297220391,-1.5273779031043833,-0.08948064154564979,-1.8764199269276975],[-0.7998266594979457,0.8124482705542282,0.35590988310095106,-0.9868674779531724,1.1965628455870279,-0.11811391293145651,-0.14246594771481025,1.8888919485202245,-1.153373272106681,2.557643642659799],[-1.5141806252972654,1.2897353053833718,1.1140707560064,0.8028118955662942,0.5868994444774361,-1.9711157238628547,-0.19599252878454113,-0.9953459930261312,0.20329438305589914,-1.9711112979904981],[-0.4026772400736658,0.13340330914704795,0.9861149155547462,2.054391661913155,1.2884855409223082,-0.0196831693364211,-0.8894295286826959,-0.4248012670151926,0.0760974447019408,-0.05630197918439117]]},"bias_h":{"rows":10,"cols":1,"data":[[0.7977460029408654],[1.2517631302741197],[0.4052307846417953],[-0.2252814068584631],[0.1667930269374141],[0.1105008678198332],[1.2455749057309724],[0.14890056371476224],[-0.9276882043235921],[1.8015480670815016]]},"bias_o":{"rows":4,"cols":1,"data":[[0.6490282969032475],[1.0714523814345038],[2.1005828125546233],[-0.12769535402985377]]},"learning_rate":0.1,"activation_function":{}},"history":{"rock":[],"paper":[],"scissor":[]},"choice":"scissor","choice_code":2,"choice_history":["scissor"],"choice_code_history":[2]},{"id":"lywklexp6clyh4268yp","r":20,"highlight":false,"position":{"isPInst":true,"x":108.49918133902682,"y":51.00073811796204,"z":0},"velocity":{"isPInst":true,"x":0.37121977458091404,"y":-0.09191923106923139,"z":0},"score":0,"prey_score":0,"fitness":0,"brain":{"input_nodes":6,"hidden_nodes":10,"output_nodes":4,"weights_ih":{"rows":10,"cols":6,"data":[[-0.5334929724478384,-1.0263824886453639,1.371735161291529,1.3991191282969035,-0.11391988012355897,-0.5481753905117703],[0.804020731428577,0.0984082854756605,-0.40026438107879503,1.034392400624602,-1.8921804598387395,-0.8613883174395217],[0.15144315211153314,-1.226834402410127,0.065957264655433,-0.12923031095214266,0.18239342255596963,-1.2471391060407442],[0.39102186801456806,1.2318064830033055,1.5921385658571447,-1.9995480897962918,0.14752799371660003,-0.919798887602531],[-0.2497800737970542,-0.7008375769584166,0.08500822286570489,-1.0813114277420335,0.031828772416792245,0.6937508729383985],[0.9646303671992761,-0.5124052423944863,0.19867026031546475,-0.9163317169682378,-2.0464901316355233,0.5393648401229686],[-0.35411300048535965,0.6913575642875096,-0.28954122183561926,0.22287792798335082,0.9148482946609834,0.9917522999211124],[0.7316807547017896,1.4230762293845878,0.5222169675313064,-0.6165559202918125,0.9251759078606481,0.5582826529604459],[1.4069574917124572,0.29512566496739406,1.2783005027354002,-0.809152604635083,-1.1879201195696991,1.106247315175076],[1.838516013451565,0.002871699990071308,0.290405839165366,0.2845770974756193,1.1465577953121784,0.09449163188284465]]},"weights_ho":{"rows":4,"cols":10,"data":[[-0.5367970491076155,-0.7954233209320201,0.11914228379103486,-0.19096633409966543,0.6602902425294919,-2.4879492430863004,1.129605297220391,-1.5273779031043833,-0.08948064154564979,-1.0276859770447482],[-0.7998266594979457,0.8124482705542282,0.35590988310095106,-0.9868674779531724,1.1965628455870279,-0.06625772917433737,-0.14246594771481025,1.8133368471226594,-1.153373272106681,2.557643642659799],[-0.776570658061331,-0.05880315216869919,1.1140707560064,1.1728411115756598,0.5868994444774361,-1.9711157238628547,-0.19599252878454113,-0.707658657896503,0.20329438305589914,-2.106133825095353],[-1.0285174498619032,0.13340330914704795,0.3020434058398502,1.9107714751182703,1.0145580175625732,0.0759957886364091,-0.5019647242905816,-1.0316160874544007,0.5738464574178632,0.28854963470277833]]},"bias_h":{"rows":10,"cols":1,"data":[[1.2741260055583887],[-0.1959806156396671],[0.4052307846417953],[0.09100912650868942],[0.1667930269374141],[0.1105008678198332],[1.2455749057309724],[0.14890056371476224],[-0.9276882043235921],[1.8015480670815016]]},"bias_o":{"rows":4,"cols":1,"data":[[0.7447725495365219],[1.0714523814345038],[2.5555419353396926],[-0.12769535402985377]]},"learning_rate":0.1,"activation_function":{}},"history":{"rock":[],"paper":[],"scissor":[]},"choice":"scissor","choice_code":2,"choice_history":["scissor"],"choice_code_history":[2]}]
