[{"id":"lywkmfpwrnxlfsiyek","r":20,"highlight":false,"position":{"isPInst":true,"x":159.63720825717607,"y":20,"z":0},"velocity":{"isPInst":true,"x":-0.2504154702624857,"y":-0.003950891252460398,"z":0},"score":0,"prey_score":0,"fitness":0,"brain":{"input_nodes":6,"hidden_nodes":10,"output_nodes":4,"weights_ih":{"rows":10,"cols":6,"data":[[1.783434719577068,-0.2140783475689748,0.6557085910678029,-0.9121823134594128,-2.1462198333235523,1.9957010261434258],[-0.26569216832402565,-1.2376806427876539,0.6846752706796324,0.22474744799767038,-0.4453028345969722,0.47703924612412374],[-0.09959821482242923,1.3828742757602166,-0.05330697392311684,1.2568923813169868,2.251399468820653,0.5138826688940474],[1.9528422144104889,-0.676453924217567,0.4117989416569767,1.6914154911071009,0.7949299630661182,-0.03904627316485901],[-2.206248424766562,0.12262829985741025,2.318685810197756,0.8963533713274577,2.335724273398096,-0.4192331033510217],[-1.482994402849174,1.0149379538287755,-1.5550940099959205,1.622421762052614,0.21565751517161275,-1.4780011867251324],[0.7876883828714982,0.7940767991448131,0.7676815670310877,0.11562931258000875,0.3137417894775324,0.7940301968353578],[-0.5257910222511871,1.960401873961103,2.155323447873675,1.0205652647726067,0.8962584045505498,-0.29673280908465716],[-0.7846917181723002,-2.4060399508880517,0.9378692954289418,-0.3711893846865282,0.10716697610418102,0.787346251860433],[1.6134077724376958,0.8810331484298254,-0.34930336495515174,0.6640834609924322,-2.01840944218039,-0.41417814687684984]]},"weights_ho":{"rows":4,"cols":10,"data":[[0.47689465940473424,0.5270910152768963,1.27053480432993,-1.0387461092589159,-0.7770518041965461,1.1563661571287023,0.628217007757105,-0.04523268628871702,-0.7327612913378607,-0.6536655955067421],[-0.6379979988855751,-0.5346197921810332,0.1012173900013501,-0.20978621714801626,-0.9427657251600257,-0.7195680754667502,0.14249394562845324,4.0739406130477125,-1.0639054284879432,-0.3592401848915909],[-1.1223112994415616,-1.8221148401113523,-1.5853751812046855,2.796861884685841,0.02937235707179675,-0.7054472744975557,-0.049715506861127357,-0.622677950663652,0.0381399857103355,0.8912546526473468],[-0.024035616033719537,2.2184040388522135,0.037260346928607024,1.0070867380530613,-0.4511264165471376,0.007651538084327697,0.3943202816218798,1.5787815293404295,-1.0742364843437726,-2.7052237877348855]]},"bias_h":{"rows":10,"cols":1,"data":[[-0.9563334690715328],[-0.6323339091925652],[0.7252392492219056],[1.7620823018752116],[-0.5730019862428064],[-0.525125526388038],[1.5460992487997847],[0.9656509058592551],[-1.7847117005781759],[-1.2967279712001163]]},"bias_o":{"rows":4,"cols":1,"data":[[-2.092686852879182],[-1.5351059302845167],[0.9381802514680526],[-2.1786448888699828]]},"learning_rate":0.1,"activation_function":{}},"history":{"rock":[],"paper":[],"scissor":[]},"choice":"rock","choice_code":0,"choice_history":["rock"],"choice_code_history":[0]},{"id":"lywkmfpwusfubjve0gb","r":20,"highlight":false,"position":{"isPInst":true,"x":114.94403468264522,"y":47.97490731608043,"z":0},"velocity":{"isPInst":true,"x":-0.49587129461628243,"y":0.4386956895247729,"z":0},"score":0,"prey_score":0,"fitness":0,"brain":{"input_nodes":6,"hidden_nodes":10,"output_nodes":4,"weights_ih":{"rows":10,"cols":6,"data":[[1.7631015721316627,-0.2140783475689748,0.23183004714876898,-0.9121823134594128,-2.1462198333235523,1.9957010261434258],[-0.26569216832402565,-1.2376806427876539,-0.25923978730878905,0.8861355978325356,0.10829154188582457,0.47703924612412374],[-0.09959821482242923,1.3699416715887156,0.36366549752470695,1.2568923813169868,2.251399468820653,0.5138826688940474],[1.9528422144104889,-0.676453924217567,0.4117989416569767,1.6914154911071009,0.7949299630661182,-0.03904627316485901],[-2.206248424766562,0.12262829985741025,2.318685810197756,0.8963533713274577,2.335724273398096,-0.4192331033510217],[-1.482994402849174,1.0149379538287755,-1.5550940099959205,2.0137385222611908,0.21565751517161275,-1.7916181224974492],[0.7876883828714982,0.7940767991448131,0.7676815670310877,0.11562931258000875,1.0951227183652197,0.7940301968353578],[-0.5257910222511871,1.960401873961103,2.155323447873675,1.0205652647726067,0.8962584045505498,-0.29673280908465716],[-0.7846917181723002,-2.4060399508880517,0.9378692954289418,-0.3711893846865282,0.10716697610418102,0.35961766791730954],[1.6134077724376958,0.8810331484298254,-0.34930336495515174,1.0736213872090743,-2.01840944218039,-0.41417814687684984]]},"weights_ho":{"rows":4,"cols":10,"data":[[0.47689465940473424,0.5270910152768963,1.27053480432993,-1.0387461092589159,-0.7770518041965461,1.1563661571287023,0.628217007757105,-0.04523268628871702,-0.7327612913378607,-1.3989373808843975],[-0.6379979988855751,-0.5346197921810332,0.1012173900013501,-0.20978621714801626,-0.9427657251600257,-0.7195680754667502,0.14249394562845324,4.0739406130477125,-1.0639054284879432,-0.3592401848915909],[-0.6425098035234016,-1.8221148401113523,-1.6425142804742503,2.796861884685841,0.02937235707179675,-0.7054472744975557,0.6064022129440491,0.0963463109590248,0.0381399857103355,0.8912546526473468],[-0.024035616033719537,2.2184040388522135,0.7363952356549464,2.2860090844051024,-0.4511264165471376,0.007651538084327697,0.3943202816218798,1.5787815293404295,-1.0223399591566682,-2.7052237877348855]]},"bias_h":{"rows":10,"cols":1,"data":[[-0.9563334690715328],[-0.6323339091925652],[0.7252392492219056],[1.7620823018752116],[-0.22744206986645066],[0.007810912774720347],[1.5460992487997847],[0.9656509058592551],[-1.7847117005781759],[-1.2967279712001163]]},"bias_o":{"rows":4,"cols":1,"data":[[-2.092686852879182],[-1.5351059302845167],[0.9381802514680526],[-2.1786448888699828]]},"learning_rate":0.1,"activation_function":{}},"history":{"rock":[],"paper":[],"scissor":[]},"choice":"rock","choice_code":0,"choice_history":["rock"],"choice_code_history":[0]},{"id":"lywkmfpwz6ji8kymub","r":20,"highlight":false,"position":{"isPInst":true,"x":212.17729269101224,"y":25.241980797252918,"z":0},"velocity":{"isPInst":true,"x":-0.16920652743638076,"y":-0.47200719562099325,"z":0},"score":0,"prey_score":0,"fitness":0,"brain":{"input_nodes":6,"hidden_nodes":10,"output_nodes":4,"weights_ih":{"rows":10,"cols":6,"data":[[-1.172080048125451,0.7735902010653158,0.7495904829842963,-0.4120172707199523,1.0196486246456369,-2.0553226297642304],[-0.9907012522590495,-2.3212652680109893,1.3615034499733667,2.2067158932570416,-0.18437502473930278,0.8499199721876027],[-2.364717232379025,-0.02675815456385952,-0.6506097455542059,1.5468741080391284,0.7326150667968374,3.334966259007492],[1.207560003641836,-1.161709918886641,2.134340191359285,-1.1088425373245694,-0.975611388859353,0.4030881694379121],[-1.7146875646803368,-2.1172693727987495,5.569923970820178,-3.0464611128848946,1.075376898099532,0.948739656062933],[1.0466290265359908,-1.3166332813558896,-1.600065887067478,0.06931379515400143,-0.12492957385061865,-0.7262980870868563],[-0.8572177685646252,-0.45594543697699513,-0.1955511183868388,-1.7040771192623498,0.9323717881340708,1.1733959426872507],[-0.5931191423501034,0.3823233842589684,1.5690503207180906,0.9775564495937573,0.682012865840249,0.09167848882100671],[0.6311725819993239,-0.9431135070791347,-1.0852581779305857,-0.759742276924298,0.15346708907205908,0.5500524965570874],[-0.14099338698591446,0.9732912052159807,-1.0566419416103134,-2.689853928201078,-0.6764140868540294,-1.2739251782275895]]},"weights_ho":{"rows":4,"cols":10,"data":[[1.1927807527876066,-0.41730439417852183,0.5944126534265468,2.6846937619414586,1.1138931997393533,-0.37957608298118006,-3.3924717577602834,-0.5068886834186209,1.0201949394738399,0.7080660265924157],[1.5701946633535786,1.158218584266621,0.6614078612637354,-0.1734309535627685,-1.3738650663047816,-0.19961434446563212,0.17434983008630167,-0.062287352932330786,0.27278891921458753,-1.2336051656039682],[-0.6550331018771984,1.9379925592473193,-1.2142021355795516,-0.7996077371263491,1.3372591156911906,-1.5744070347216752,-2.362237667232678,1.056670486266256,0.3754298513897642,-0.3925110645440364],[1.9440147758153146,0.08374203544390413,-1.345397078846395,-0.054492491594176296,-1.806848499626513,1.2991819170365146,-0.12616215441999,-0.9602700569565067,2.847465955976667,1.2888815617996574]]},"bias_h":{"rows":10,"cols":1,"data":[[-0.49936439617604805],[1.7403075931941077],[1.4585111983281256],[2.2021577887581545],[-0.1476913413323515],[-0.11362329224032741],[1.918476984029864],[0.0023170568190311047],[-1.3596773228264991],[2.2104978988620037]]},"bias_o":{"rows":4,"cols":1,"data":[[0.5206678694670113],[3.2677245819899206],[-1.6266857349113695],[0.40295945196217864]]},"learning_rate":0.1,"activation_function":{}},"history":{"rock":[],"paper":[],"scissor":[]},"choice":"paper","choice_code":1,"choice_history":["paper"],"choice_code_history":[1]},{"id":"lywkmfpwi84h928tmye","r":20,"highlight":false,"position":{"isPInst":true,"x":78.17437265561512,"y":20,"z":0},"velocity":{"isPInst":true,"x":0.1463639825379106,"y":-0.4552888648742348,"z":0},"score":0,"prey_score":0,"fitness":0,"brain":{"input_nodes":6,"hidden_nodes":10,"output_nodes":4,"weights_ih":{"rows":10,"cols":6,"data":[[-1.172080048125451,0.8598680776692544,0.5511093754667433,-0.4630595348128813,1.3151264390925503,-2.0553226297642304],[-0.8846221763885311,-2.1743159972429913,1.3615034499733667,2.51829374598766,-0.18437502473930278,1.2186580923343895],[-2.364717232379025,0.034864316953724606,-0.6506097455542059,1.5468741080391284,0.7326150667968374,2.8470862630927436],[1.207560003641836,-1.161709918886641,2.134340191359285,-1.1088425373245694,-0.975611388859353,0.4030881694379121],[-1.7146875646803368,-2.1172693727987495,5.569923970820178,-3.0464611128848946,1.075376898099532,0.948739656062933],[1.0466290265359908,-1.3166332813558896,-1.600065887067478,0.06931379515400143,0.08899122161770001,-0.7262980870868563],[-0.8572177685646252,-0.45594543697699513,-0.1955511183868388,-1.0967460595908451,1.4686293530467116,1.1733959426872507],[-0.5931191423501034,0.3823233842589684,1.5690503207180906,0.9775564495937573,0.682012865840249,0.28706310952542],[0.6311725819993239,-0.9431135070791347,-0.8945570864950707,-0.759742276924298,0.15346708907205908,0.9347008129748613],[-0.4551422981933107,0.9732912052159807,-1.0566419416103134,-2.515859417648563,-0.6764140868540294,-1.2739251782275895]]},"weights_ho":{"rows":4,"cols":10,"data":[[1.1927807527876066,-0.41730439417852183,0.7482619077165675,2.6846937619414586,1.2952419417611454,-0.37957608298118006,-3.3924717577602834,-0.5068886834186209,1.1588893845318833,0.7080660265924157],[1.5701946633535786,1.158218584266621,1.2506505556558,-0.1734309535627685,-1.3738650663047816,-0.19961434446563212,0.17434983008630167,-0.062287352932330786,0.27278891921458753,-1.2336051656039682],[-0.6550331018771984,1.9379925592473193,-1.351444234142156,-0.7996077371263491,1.3372591156911906,-1.5744070347216752,-2.362237667232678,1.056670486266256,0.3754298513897642,-0.3925110645440364],[1.9440147758153146,-0.5454695388100388,-1.345397078846395,-0.054492491594176296,-1.806848499626513,1.5876811175554284,-0.12616215441999,-0.9602700569565067,2.847465955976667,1.102361515820726]]},"bias_h":{"rows":10,"cols":1,"data":[[-0.49936439617604805],[1.7403075931941077],[1.4585111983281256],[2.2021577887581545],[-0.1476913413323515],[-1.1075820634313038],[1.918476984029864],[0.0023170568190311047],[-1.3596773228264991],[1.9437464960026893]]},"bias_o":{"rows":4,"cols":1,"data":[[1.5520386056493707],[3.2677245819899206],[-1.6266857349113695],[0.40295945196217864]]},"learning_rate":0.1,"activation_function":{}},"history":{"rock":[],"paper":[],"scissor":[]},"choice":"paper","choice_code":1,"choice_history":["paper"],"choice_code_history":[1]},{"id":"lywkmfpwj6anpx007a","r":20,"highlight":false,"position":{"isPInst":true,"x":20,"y":53.2319558995403,"z":0},"velocity":{"isPInst":true,"x":0.0953532397625958,"y":-0.022949526937381615,"z":0},"score":0,"prey_score":0,"fitness":0,"brain":{"input_nodes":6,"hidden_nodes":10,"output_nodes":4,"weights_ih":{"rows":10,"cols":6,"data":[[-0.8212603509868777,-0.9898094128757562,1.2963744627388216,0.9858163442808338,0.543847043108677,-0.6937858074451126],[1.4799440955633192,0.0984082854756605,0.10278796534168938,0.6023675535866713,-1.8921804598387395,1.2751383644487846],[-0.989897082632839,-0.8244524286611778,0.23963302446362306,-0.46249949865156276,1.1219781404193971,-1.382833567590355],[0.41040754219693176,1.2318064830033055,0.7120022710574999,-2.035015085507153,1.3660247501298957,-0.8424018858625697],[-1.128045278861468,-1.2137861577665248,-0.5282132414128722,-0.2647506192970692,-0.6248300226913353,0.4229900086345468],[2.74167587666593,-0.17833176961813513,1.0868495094613462,-0.9163317169682378,-2.1617795825186237,1.1566950528947897],[-0.35411300048535965,0.8681381986787905,-0.2328415453561667,0.9264667838657097,-0.9175659095397808,0.6851050656334157],[0.9078279921542313,1.7278237921417368,-0.09331012486604484,0.18642964016432462,1.3481768334805158,0.3245540008966667],[1.069666999208442,-0.7050961366309294,0.21680377957168662,0.04408417282254379,-0.48123649686394293,1.2064777375506557],[0.8061674401076672,0.8029534456906257,2.3966031575148845,1.9532296579889117,0.39401930147385944,0.03336241908625654]]},"weights_ho":{"rows":4,"cols":10,"data":[[-0.5367970491076155,-0.6441579408609874,-0.3574803609661305,0.45758188962509827,2.0434933248704743,-2.3843641028640388,1.080361734627881,-1.6872723797270466,-0.09565577411138204,-0.36518157049498856],[-0.9054047475435474,2.747353312726993,-0.2519417911079956,-1.2400744204413403,1.565239141182679,1.3501084195323798,-0.14246594771481025,1.7057426986314252,-0.04827582368156119,2.681139688686461],[-3.3426892972893056,-0.2480243984487498,2.111072084981465,2.493862435143975,0.8308678075251057,-2.780698801598788,0.7607440980958198,-0.707658657896503,0.6674171009457706,-3.107988965742226],[-1.0655153413472482,1.8794093924511865,0.7292804068461392,1.7644177680587063,0.4115601596445615,-1.6754120076675465,-0.20924269530468187,-1.2489158104451608,-0.3288146529926392,0.3971127655282791]]},"bias_h":{"rows":10,"cols":1,"data":[[0.13093372413190896],[-0.7727908095225551],[0.7825116056474615],[-0.26266216310304313],[0.20840920182772216],[0.1105008678198332],[1.927926625894308],[0.5256687567075119],[-0.7874180829552734],[-0.004841710457252901]]},"bias_o":{"rows":4,"cols":1,"data":[[0.8992312033001386],[-0.11249272553010292],[3.471017810362568],[-0.12769535402985377]]},"learning_rate":0.1,"activation_function":{}},"history":{"rock":[],"paper":[],"scissor":[]},"choice":"scissor","choice_code":2,"choice_history":["scissor"],"choice_code_history":[2]},{"id":"lywkmfpwlcplvxqu8z","r":20,"highlight":false,"position":{"isPInst":true,"x":179.71562978398504,"y":25.539664869864048,"z":0},"velocity":{"isPInst":true,"x":-0.29945602618927847,"y":0.0656521563651169,"z":0},"score":0,"prey_score":0,"fitness":0,"brain":{"input_nodes":6,"hidden_nodes":10,"output_nodes":4,"weights_ih":{"rows":10,"cols":6,"data":[[-0.8212603509868777,-0.9898094128757562,1.2963744627388216,0.9858163442808338,0.543847043108677,-0.6937858074451126],[1.469969538221802,0.0984082854756605,0.10278796534168938,0.6023675535866713,-1.8921804598387395,1.2751383644487846],[-0.989897082632839,-0.8244524286611778,0.23963302446362306,-0.46249949865156276,1.1219781404193971,-1.382833567590355],[0.3936894605563077,1.2318064830033055,0.7120022710574999,-2.035015085507153,1.3660247501298957,-0.8424018858625697],[-1.128045278861468,-1.2137861577665248,-0.5282132414128722,-0.2647506192970692,-0.6248300226913353,0.1230815019796504],[2.74167587666593,-0.17833176961813513,1.0868495094613462,-0.9163317169682378,-2.1617795825186237,1.1783107704111213],[-0.35411300048535965,0.8681381986787905,0.1645861776082269,0.9264667838657097,-0.8610376762122897,0.16758029297931454],[0.9078279921542313,1.7278237921417368,-0.09331012486604484,0.18642964016432462,0.9513951831345957,0.918934728577055],[1.069666999208442,-1.2437668351765185,0.21680377957168662,0.04408417282254379,-0.48123649686394293,1.2064777375506557],[0.8061674401076672,0.8029534456906257,2.4942097804021004,1.9532296579889117,0.39401930147385944,0.03336241908625654]]},"weights_ho":{"rows":4,"cols":10,"data":[[-0.5367970491076155,-0.6441579408609874,-0.3574803609661305,0.45758188962509827,2.0434933248704743,-2.3843641028640388,1.080361734627881,-1.6872723797270466,-0.05237083552478916,-0.36518157049498856],[-0.21116050575280565,2.747353312726993,-0.22666667642921,-1.1722855696306034,1.565239141182679,1.9568019128912664,-0.4399571939008716,1.7057426986314252,-0.04827582368156119,2.442898342619863],[-3.3426892972893056,-0.2480243984487498,1.751037281143725,2.493862435143975,0.26919251335096106,-2.9676318252670106,0.7607440980958198,-0.707658657896503,0.6674171009457706,-3.107988965742226],[-1.0655153413472482,1.0448325656517328,0.7292804068461392,1.7644177680587063,0.4115601596445615,-1.6754120076675465,-0.20924269530468187,-1.2489158104451608,-0.3288146529926392,0.3971127655282791]]},"bias_h":{"rows":10,"cols":1,"data":[[0.13093372413190896],[-0.7727908095225551],[0.25179989871734687],[-0.26266216310304313],[0.20840920182772216],[0.1105008678198332],[1.927926625894308],[0.5256687567075119],[-0.7874180829552734],[0.2539577120673154]]},"bias_o":{"rows":4,"cols":1,"data":[[0.8992312033001386],[-0.11249272553010292],[3.471017810362568],[-0.12769535402985377]]},"learning_rate":0.1,"activation_function":{}},"history":{"rock":[],"paper":[],"scissor":[]},"choice":"scissor","choice_code":2,"choice_history":["scissor"],"choice_code_history":[2]}]
